34 64
34 0.016534 -0.031215 0.348525 -0.043126 0.140131 -0.265107 0.060366 0.029910 -0.143894 -0.050009 0.025588 -0.044540 -0.165592 -0.223295 0.375462 0.127669 0.018535 -0.080853 0.059490 0.154658 -0.247130 -0.165417 -0.077615 0.099977 -0.205523 -0.246557 -0.292161 0.151827 -0.067643 0.083540 -0.010760 0.019619 0.119500 -0.065733 -0.468853 -0.153743 -0.259261 -0.261545 0.002162 0.167639 -0.000964 0.077229 -0.112218 -0.064334 -0.256277 0.318227 -0.207987 0.003937 -0.009994 -0.162420 -0.243167 0.110111 -0.275391 -0.106935 0.095370 0.022840 0.083941 -0.223401 0.146893 -0.066650 0.095959 -0.126652 0.049720 -0.267087
1 -0.008866 0.265376 -0.341688 0.058675 -0.035537 -0.074017 -0.080898 -0.128951 -0.052417 0.070207 -0.202132 -0.064214 0.028872 0.101431 -0.032418 0.053905 0.138787 0.007194 -0.228228 -0.017671 0.180544 0.251570 -0.214694 0.128811 0.231330 0.242622 -0.132030 -0.348828 -0.073665 0.199478 -0.313487 0.064161 0.355776 0.189100 -0.068658 0.004918 0.114641 0.172152 -0.183903 -0.122094 0.352919 0.154820 -0.142495 0.294951 -0.015785 0.242186 0.164690 -0.164600 -0.093517 -0.041309 -0.309294 0.108963 -0.030092 0.024703 0.062057 -0.322793 -0.065364 -0.070934 -0.045035 0.035890 -0.130163 0.097547 0.175813 0.172186
33 0.132444 0.128554 0.317353 -0.219651 -0.035300 -0.171824 -0.077215 0.049138 -0.039774 -0.060791 -0.037787 -0.024045 -0.170499 -0.314455 0.572145 -0.044754 -0.104278 -0.190293 0.141826 0.020423 -0.182681 -0.111037 -0.011346 0.040662 -0.189121 -0.043403 -0.357950 0.138806 -0.080091 0.048847 0.061320 -0.140064 0.151472 -0.090090 -0.450891 -0.170919 -0.188200 -0.220421 -0.005678 0.268568 0.002924 -0.002559 0.002684 -0.339678 -0.246981 0.409656 -0.169529 -0.013757 -0.149031 -0.037000 -0.160050 0.048830 -0.192930 0.016954 0.028389 0.309442 0.210869 -0.380978 0.290970 0.045075 -0.044029 -0.164510 0.192498 -0.232618
3 0.002976 -0.048651 0.160738 0.283504 0.083487 -0.302815 0.224377 -0.076149 0.193841 0.006445 0.196684 0.041435 -0.072989 -0.098965 -0.198057 -0.057770 0.047060 -0.075400 -0.062222 0.267652 -0.080185 -0.343874 -0.223487 0.206918 -0.095610 -0.199443 -0.116594 -0.053942 -0.110183 0.141358 -0.002720 0.225737 -0.022013 0.038892 -0.128427 0.099123 -0.157241 -0.086518 -0.132778 -0.124785 0.178115 0.101960 -0.117421 0.300100 -0.094272 -0.036517 -0.050915 0.116903 0.024275 -0.112348 -0.219997 -0.082801 -0.092057 -0.174731 0.063795 -0.276212 -0.172735 0.082765 -0.194633 0.050329 0.063059 0.194476 -0.032466 -0.097996
2 -0.145118 0.324712 0.096899 0.193563 0.053447 -0.366383 0.228850 -0.187312 0.018647 0.137645 -0.220408 -0.030434 0.076281 -0.105963 -0.124677 -0.080511 0.243662 -0.020547 -0.117167 -0.130204 -0.114353 -0.066116 -0.425749 0.200383 0.015293 0.017661 -0.276131 -0.363187 -0.059302 0.210460 -0.241414 0.113185 0.370303 0.104550 -0.310569 0.131783 0.051797 0.035425 -0.066973 -0.198372 0.474150 0.044761 -0.344732 0.245441 -0.224857 0.409913 -0.106573 -0.302601 0.091199 0.063611 -0.314877 0.092877 0.101603 -0.026017 0.114321 -0.221695 -0.228075 -0.180349 -0.320242 0.052750 0.066129 0.108888 0.211555 -0.081782
4 0.064485 0.376515 0.060549 0.248668 -0.044980 -0.215430 0.126763 0.043697 0.147417 0.071625 -0.211575 0.063556 0.127872 -0.065520 -0.094494 -0.160898 0.182249 -0.024966 -0.303825 -0.003264 -0.133820 -0.219393 -0.527254 0.134050 -0.080146 0.094715 -0.031452 -0.511599 -0.108981 0.224814 -0.245014 0.196100 0.269178 0.141111 -0.220544 0.288314 0.072787 0.157320 -0.061919 -0.276082 0.348375 0.028018 -0.254248 0.261075 -0.249484 0.275439 -0.035346 -0.202982 0.064197 0.084792 -0.198845 0.052040 0.092137 0.003432 0.058249 -0.261733 -0.007975 0.099539 -0.371649 0.132726 0.057958 0.317453 0.165518 0.020057
32 -0.229812 -0.277289 0.252209 0.139963 -0.094191 -0.404820 0.290383 -0.034741 0.199074 0.013404 0.436147 0.036108 -0.236583 0.011900 -0.238673 0.050286 0.079946 -0.011939 0.471236 0.048960 -0.077324 -0.073899 0.192687 0.230496 0.012697 0.037673 -0.302061 0.333926 -0.291026 0.008939 -0.124439 -0.066296 -0.136878 -0.004444 0.144377 0.024858 -0.143158 0.049651 -0.221291 0.279435 0.076039 -0.015767 -0.005339 0.070469 -0.224045 -0.241635 0.087085 0.207607 0.012691 -0.080168 -0.127075 -0.234242 -0.011198 -0.120001 -0.182571 -0.104401 -0.119565 -0.282132 -0.018599 0.170197 -0.085817 -0.097539 0.061395 -0.077334
24 -0.014134 -0.253457 0.224295 -0.067426 -0.054801 -0.138739 -0.013842 0.015552 -0.150780 -0.040778 0.388331 0.031882 -0.156970 -0.138139 0.456273 0.441992 -0.067941 -0.001833 0.177157 -0.049314 -0.197716 -0.118530 0.317062 -0.011439 0.003812 -0.010361 -0.157855 0.441838 -0.310783 -0.016501 -0.046307 -0.156031 -0.212837 -0.002456 -0.172249 -0.254303 -0.262182 -0.097422 -0.092405 0.421698 0.050072 0.085879 0.021566 -0.297266 -0.417375 -0.066795 -0.131053 0.177038 -0.061096 0.038048 0.033659 0.105702 -0.151123 0.066608 -0.135101 0.077668 0.054003 -0.412304 0.329424 0.200414 -0.043994 -0.168430 -0.106745 -0.149081
14 0.037183 0.130414 0.112947 0.186630 0.112373 -0.119149 0.305673 0.015930 0.188646 0.081484 -0.145545 -0.007701 0.078611 0.023016 -0.289991 -0.158464 0.116779 -0.116189 -0.049781 0.046928 -0.057688 -0.276660 -0.273570 0.075586 0.071363 -0.088252 -0.098703 -0.198372 -0.078106 0.215786 -0.214310 0.112298 0.172915 0.038061 -0.145937 0.235848 0.015235 0.190654 -0.092995 -0.282383 0.093794 0.014870 -0.125153 0.151669 -0.065964 0.018932 -0.004169 -0.073056 0.115397 0.007406 -0.041900 -0.061166 0.002529 -0.002579 0.058218 -0.105704 -0.027702 0.095449 -0.233108 0.063723 0.042724 0.158629 0.096352 -0.013478
9 0.058586 0.116316 0.209559 -0.139102 0.007084 -0.236480 0.068184 0.016837 0.236520 0.059972 0.001296 0.004723 -0.096419 -0.189419 -0.030872 -0.289499 -0.029427 -0.123662 0.142820 -0.018077 -0.003012 -0.172565 -0.074553 0.148500 -0.019470 -0.083245 -0.268821 -0.051422 0.066586 0.155175 0.026889 0.031421 0.171049 -0.130646 -0.149541 0.100771 -0.010793 -0.154616 -0.041489 0.002227 0.054893 0.053937 0.066289 -0.008963 -0.075046 0.126847 0.073800 -0.035610 -0.157992 -0.024826 -0.150870 -0.234667 -0.083375 -0.089909 -0.051333 0.123430 -0.086088 -0.184481 -0.082339 -0.010804 -0.053692 0.000361 0.156151 -0.085296
7 -0.362984 0.298746 -0.600502 -0.031549 -0.232555 -0.024060 -0.611327 -0.257437 -0.306315 -0.163627 -0.355804 -0.014509 -0.013080 0.066952 0.161787 -0.177438 0.156941 0.239033 -0.210332 -0.003597 0.381785 0.959072 -0.259766 0.188189 -0.164971 0.455536 -0.001547 -0.473745 0.390713 -0.305530 0.229430 0.115680 0.300463 0.232319 0.273094 -0.033452 0.241395 -0.276668 -0.033540 0.034239 0.314755 -0.209627 -0.122845 0.373859 0.371699 0.538072 0.253730 -0.186739 -0.203616 -0.164909 -0.405431 0.116238 0.285113 -0.174086 0.092299 -0.398961 -0.064137 0.071174 -0.051372 -0.401190 -0.063201 0.027578 0.320585 0.131080
6 -0.439790 0.146055 -0.680211 0.090783 -0.236976 -0.050417 -0.469783 -0.285165 -0.135944 -0.172628 -0.226165 0.004904 -0.039551 0.163479 -0.060325 -0.241101 0.158478 0.199733 0.005068 0.123009 0.447917 0.997183 -0.177683 0.303117 -0.114386 0.559725 -0.023089 -0.389469 0.262745 -0.360619 0.208275 0.108709 0.180308 0.296962 0.445370 0.005714 0.301635 -0.146545 -0.153037 0.039961 0.271771 -0.293214 -0.071549 0.432441 0.516044 0.330502 0.367714 -0.021915 -0.188443 -0.244970 -0.389466 -0.025740 0.354331 -0.170186 0.024018 -0.454644 -0.021043 0.142124 -0.079571 -0.323849 -0.108079 0.068944 0.358817 0.165038
28 -0.009974 -0.315636 0.265749 0.169887 0.000876 -0.092226 0.273268 0.118013 0.155084 -0.076648 0.385117 0.015991 -0.096865 -0.074467 0.142525 0.133143 -0.047116 -0.216369 0.370366 0.257948 -0.123918 -0.191085 0.182547 0.125242 -0.015342 0.044669 -0.279865 0.459482 -0.475833 0.011488 -0.122603 -0.202080 -0.236799 0.063514 -0.124087 -0.041245 -0.256811 0.143985 -0.236348 0.232596 -0.119967 -0.013212 -0.017000 -0.160066 -0.194915 -0.195996 -0.052475 0.333081 0.063508 -0.080999 0.022267 -0.053561 -0.098844 0.132397 -0.067183 0.043643 0.286351 -0.146456 0.221741 0.276654 -0.030216 0.009027 0.032437 -0.046914
30 0.068505 -0.162779 0.456827 -0.337612 0.012239 -0.212869 -0.072277 0.233616 -0.125394 -0.044970 0.202411 -0.046260 -0.285639 -0.216831 0.538515 0.185769 -0.076352 -0.051838 0.278747 0.021211 -0.222684 -0.130462 0.244803 0.072477 -0.095075 -0.156527 -0.357711 0.441754 -0.122944 0.113930 -0.068103 -0.137851 0.085558 -0.199521 -0.347486 -0.136297 -0.338039 -0.246823 -0.033415 0.463181 -0.211410 0.160416 0.108988 -0.256376 -0.415644 0.128429 -0.028058 0.091504 -0.150796 -0.142098 -0.150937 -0.048767 -0.401911 -0.061363 -0.118477 0.167797 0.177495 -0.430167 0.301863 -0.042472 -0.037686 -0.270323 0.034165 -0.175800
31 0.325472 0.156938 0.219376 -0.137388 0.229047 -0.077873 0.093564 0.009677 0.115213 0.101578 -0.104917 -0.066781 -0.084539 -0.198492 0.087801 -0.141996 -0.074458 -0.158762 -0.167874 0.178789 -0.026662 -0.413751 -0.137647 0.003330 -0.020126 -0.408988 -0.159368 -0.062032 0.152276 0.280686 0.005673 0.128560 0.206426 -0.166405 -0.440758 -0.062329 -0.115389 -0.178115 0.069931 -0.184532 -0.016400 0.244147 0.046754 0.030949 0.007114 0.202935 -0.117374 -0.058891 -0.099865 -0.078423 -0.156545 -0.071836 -0.359311 -0.061204 0.140263 0.130737 -0.087683 -0.023202 0.044627 -0.080462 0.034954 0.032599 0.003545 -0.094795
8 -0.019051 0.233635 -0.011120 0.337523 0.101276 -0.175418 0.306860 -0.108581 0.210620 0.092503 -0.185839 -0.010010 0.109404 0.003770 -0.346641 -0.204760 0.181223 -0.113720 -0.149024 0.106449 -0.001072 -0.197298 -0.423233 0.153937 0.030916 -0.017260 -0.105955 -0.392148 -0.086026 0.205317 -0.214118 0.171626 0.211022 0.142707 -0.163351 0.212077 0.082270 0.187596 -0.125251 -0.387995 0.314362 0.004848 -0.262503 0.316776 0.006603 0.162786 -0.043728 -0.122037 0.132199 0.014675 -0.165620 -0.004438 0.084888 -0.014650 0.139066 -0.240340 -0.097270 0.139896 -0.308135 0.089198 0.067765 0.265853 0.161729 0.011439
5 -0.405349 0.161549 -0.635522 0.085682 -0.208712 -0.102361 -0.284781 -0.280715 -0.044112 -0.054191 -0.168834 -0.007436 -0.002219 0.218600 -0.277048 -0.157677 0.194698 0.210413 0.024153 -0.085187 0.396084 0.810707 -0.123114 0.225854 0.121502 0.527333 0.007864 -0.407416 0.168799 -0.208876 0.005407 0.120858 0.196421 0.271329 0.492793 0.068364 0.366115 -0.011548 -0.190595 -0.011267 0.325227 -0.200724 -0.021719 0.390343 0.347853 0.171506 0.415400 -0.091051 -0.162773 -0.095792 -0.295127 -0.079975 0.360722 -0.148426 -0.056914 -0.390552 -0.191974 0.043215 -0.165515 -0.179133 -0.166758 0.026331 0.267693 0.184713
11 -0.373016 0.290599 -0.525429 -0.061680 -0.193266 -0.184192 -0.402131 -0.280800 -0.183136 -0.001530 -0.270098 -0.049614 -0.009620 0.134433 -0.165518 -0.104241 0.219182 0.285855 -0.154718 -0.283559 0.341713 0.738627 -0.178929 0.136814 0.106530 0.368386 0.032236 -0.493343 0.358400 -0.134609 -0.009460 0.185089 0.334088 0.173980 0.381634 0.093964 0.310835 -0.177564 -0.064368 0.006349 0.388898 -0.060722 -0.033929 0.417206 0.157726 0.290627 0.373169 -0.262015 -0.194504 -0.013444 -0.345609 -0.024104 0.275394 -0.228800 -0.066508 -0.405911 -0.367618 -0.036156 -0.210255 -0.299727 -0.157890 -0.040437 0.208970 0.125234
26 -0.216771 -0.512623 0.255851 0.387915 -0.162528 -0.173310 0.274018 0.079242 0.014319 -0.162369 0.686952 0.075790 -0.195877 -0.001199 0.212351 0.386703 0.003004 -0.145965 0.520193 0.339763 -0.175081 -0.029256 0.318771 0.237639 -0.075526 0.247129 -0.355421 0.686428 -0.768318 -0.089226 -0.163486 -0.309974 -0.410783 0.172337 0.012424 -0.161279 -0.431602 0.286203 -0.353211 0.484445 0.028873 -0.064027 -0.188398 -0.100028 -0.335011 -0.273021 -0.123130 0.447729 0.151085 -0.134871 -0.048401 0.087884 -0.060237 0.156291 -0.076560 -0.191160 0.334056 -0.298609 0.309639 0.415640 -0.021241 -0.029241 0.014177 0.008064
25 -0.323529 -0.452434 0.086110 0.445685 -0.218849 -0.230867 0.237055 -0.092966 -0.038815 -0.103433 0.674731 0.099555 -0.159331 0.070536 0.117431 0.504968 0.081520 -0.023912 0.438124 0.161686 -0.137441 0.059802 0.303345 0.226920 0.027897 0.336158 -0.274569 0.552622 -0.750586 -0.115337 -0.182855 -0.240968 -0.403505 0.245393 0.132545 -0.195488 -0.337129 0.299786 -0.380907 0.454740 0.258072 -0.070402 -0.243781 -0.059400 -0.378964 -0.274707 -0.102088 0.352201 0.150636 -0.047294 -0.029758 0.162964 0.090460 0.137853 -0.119871 -0.283878 0.123980 -0.369604 0.232407 0.453605 -0.039742 -0.028394 0.003522 0.020088
20 0.053479 0.243253 0.106868 -0.025878 0.081177 -0.095324 0.123848 0.004566 0.028182 0.128730 -0.188326 -0.010423 0.037887 -0.017620 -0.181031 -0.072058 0.096299 0.049896 -0.179652 -0.177844 -0.023043 -0.187029 -0.189128 -0.076582 0.077690 -0.180135 0.000979 -0.216462 0.118284 0.180355 -0.143073 0.123298 0.181024 -0.074333 -0.126648 0.106451 0.048393 0.006491 0.061148 -0.177856 0.100199 0.084659 -0.040404 0.071435 -0.139250 0.140554 -0.012412 -0.228709 0.060448 0.105629 -0.033871 -0.007454 -0.061176 -0.022682 0.043026 0.025106 -0.203216 -0.005472 -0.168180 -0.026485 0.027132 0.011064 -0.002361 -0.034183
29 -0.015281 -0.040158 0.254319 0.179875 -0.083085 -0.158139 0.285212 0.022360 0.375254 -0.070717 0.190068 0.108939 -0.072200 -0.089840 -0.125304 -0.297512 -0.042971 -0.264022 0.354433 0.242104 -0.057363 -0.207494 -0.078373 0.231629 -0.129588 0.107475 -0.346858 0.169511 -0.294881 0.036733 0.086688 -0.131831 -0.078673 0.005127 -0.055117 0.138269 -0.156423 0.146441 -0.184965 0.033552 0.023733 -0.183952 -0.048352 -0.087356 -0.032173 -0.044754 -0.029245 0.218755 0.033780 -0.079559 -0.039683 -0.154407 0.062284 0.052607 -0.015630 0.099481 0.189939 -0.104461 -0.022238 0.214842 -0.030284 0.109130 0.220876 -0.050758
17 -0.303585 0.264097 -0.888551 0.023953 -0.141404 0.242474 -0.674929 -0.371875 -0.315125 -0.204885 -0.473912 -0.071784 0.104775 0.125266 0.159082 -0.216293 0.065379 0.151396 -0.288691 0.169123 0.537816 1.110492 -0.245285 0.133088 -0.115623 0.521909 0.128676 -0.544346 0.452820 -0.435300 0.353318 0.099113 0.240179 0.345736 0.313102 -0.136602 0.404574 -0.235136 -0.023456 -0.121453 0.251940 -0.280239 -0.101554 0.351706 0.765205 0.517898 0.222591 -0.100232 -0.220331 -0.198935 -0.313019 0.182659 0.380495 -0.088809 0.200074 -0.331702 0.057484 0.314161 0.047582 -0.430734 -0.073686 0.092807 0.306923 0.181487
19 0.140405 -0.030064 0.489794 -0.378002 0.010666 -0.293892 -0.032492 0.128222 0.065340 0.005647 0.134433 -0.009092 -0.279358 -0.287046 0.329000 -0.070776 -0.120386 -0.086548 0.230320 -0.063039 -0.204888 -0.297139 0.139639 0.067975 -0.144146 -0.262277 -0.327117 0.282551 0.084149 0.134999 0.097583 -0.038839 0.114875 -0.284273 -0.307463 -0.037667 -0.242436 -0.357257 0.063548 0.306984 -0.129846 0.119107 0.192444 -0.246239 -0.328307 0.112406 -0.033658 0.040175 -0.208646 -0.064834 -0.124829 -0.200057 -0.318801 -0.154039 -0.125655 0.293444 -0.044076 -0.399657 0.136968 -0.085322 -0.058247 -0.233588 0.033232 -0.249269
15 0.128205 0.021553 0.531758 -0.384929 -0.011907 -0.342792 -0.035693 0.138160 0.096216 0.006998 0.131496 -0.004318 -0.281282 -0.328246 0.339937 -0.128047 -0.106345 -0.093023 0.254757 -0.071764 -0.205058 -0.286312 0.086812 0.106237 -0.161846 -0.241579 -0.396885 0.253583 0.067537 0.158349 0.098986 -0.042392 0.156486 -0.285618 -0.350546 -0.009325 -0.257376 -0.372530 0.036311 0.330152 -0.110200 0.118104 0.173136 -0.236753 -0.372185 0.168629 -0.021424 0.021792 -0.232178 -0.068571 -0.183973 -0.218616 -0.316571 -0.158467 -0.128332 0.285605 -0.040991 -0.449606 0.103778 -0.080325 -0.060031 -0.222888 0.086572 -0.258528
22 -0.072860 0.357209 -0.137923 0.193161 0.047304 -0.137537 0.132986 -0.137871 -0.004492 0.153682 -0.283125 -0.019475 0.143236 0.065523 -0.339702 -0.045766 0.234055 0.113451 -0.312602 -0.207990 0.054031 -0.012481 -0.356443 0.001632 0.160306 0.004087 0.067160 -0.496018 0.066494 0.167282 -0.271248 0.211470 0.260276 0.105179 -0.029991 0.138826 0.191676 0.128099 -0.014699 -0.319904 0.371142 0.055818 -0.210967 0.295826 -0.083599 0.227122 0.025861 -0.338685 0.120517 0.135876 -0.139163 0.090970 0.121105 -0.026313 0.101914 -0.221125 -0.301016 0.066094 -0.316664 0.016310 0.035430 0.138404 0.071091 0.048206
18 -0.049651 0.363716 -0.152374 0.155724 0.064746 -0.091709 0.108914 -0.132550 -0.002061 0.154112 -0.316241 -0.028558 0.149038 0.069684 -0.344686 -0.102773 0.210248 0.095543 -0.321309 -0.186656 0.074681 -0.005362 -0.366421 -0.030260 0.139619 -0.029240 0.084119 -0.504383 0.132403 0.150621 -0.206441 0.204668 0.266450 0.074495 -0.021902 0.150953 0.211084 0.102722 0.021630 -0.357806 0.315561 0.048213 -0.179861 0.285492 -0.011289 0.221305 0.029561 -0.336464 0.106602 0.133513 -0.108700 0.070799 0.109311 -0.034128 0.106280 -0.184868 -0.285592 0.124582 -0.314720 -0.026448 0.039565 0.130961 0.064751 0.053544
23 0.134541 -0.058426 0.509037 -0.393729 0.024840 -0.309579 -0.051548 0.123752 0.080266 0.009699 0.163189 -0.022548 -0.315690 -0.314483 0.348354 -0.082972 -0.136466 -0.086756 0.258941 -0.019897 -0.189001 -0.287420 0.151653 0.093833 -0.155135 -0.284141 -0.354767 0.311665 0.089314 0.125229 0.123052 -0.033274 0.103019 -0.286590 -0.325159 -0.060163 -0.269388 -0.394863 0.049424 0.332879 -0.151691 0.134935 0.199314 -0.246355 -0.311187 0.117038 -0.030774 0.067561 -0.234680 -0.106289 -0.159624 -0.229568 -0.348057 -0.167336 -0.113885 0.279049 -0.042856 -0.422057 0.157422 -0.107263 -0.055470 -0.245953 0.041211 -0.256751
13 -0.156595 0.257633 -0.116448 0.321451 0.035901 -0.280358 0.264489 -0.145290 0.144026 0.138838 -0.210384 -0.015521 0.109177 0.142305 -0.551780 -0.138061 0.292515 0.065457 -0.160017 -0.104732 0.028179 -0.037849 -0.415176 0.160743 0.144123 0.074519 -0.016956 -0.499925 -0.008751 0.207991 -0.331390 0.272361 0.300510 0.149565 0.067708 0.321210 0.194118 0.224397 -0.136871 -0.361588 0.397734 0.021042 -0.249110 0.466438 -0.049253 0.075082 0.131600 -0.245305 0.115351 0.046635 -0.200620 -0.055445 0.181061 -0.120267 0.037473 -0.418791 -0.306719 0.114544 -0.484099 0.016387 0.020649 0.222812 0.136484 0.071280
16 0.135916 -0.052068 0.493136 -0.323474 0.010644 -0.299684 -0.006557 0.122455 0.117581 -0.005644 0.169824 0.000039 -0.280938 -0.284376 0.299003 -0.115335 -0.125784 -0.117143 0.266682 0.023044 -0.180821 -0.295943 0.132658 0.106399 -0.159110 -0.250754 -0.361093 0.294526 0.053330 0.136727 0.118028 -0.050592 0.090966 -0.264960 -0.307626 -0.021537 -0.262719 -0.333922 0.018632 0.300387 -0.146460 0.115468 0.177858 -0.211472 -0.278238 0.093587 -0.034017 0.083874 -0.214021 -0.102437 -0.146542 -0.225115 -0.310417 -0.145190 -0.114819 0.251850 -0.008701 -0.376794 0.130729 -0.071165 -0.047609 -0.192194 0.062909 -0.225705
10 0.207043 0.105891 0.377580 -0.010776 0.116748 -0.115888 0.264620 0.093481 0.337420 0.002458 -0.051794 0.034545 -0.011041 -0.223825 0.004624 -0.358996 -0.093309 -0.307066 0.104364 0.186012 -0.159927 -0.460544 -0.220402 0.091469 -0.154969 -0.196806 -0.269142 0.004717 -0.061276 0.175526 0.101490 -0.011637 0.077772 -0.115649 -0.360012 0.149092 -0.109380 -0.046490 -0.012657 -0.132550 -0.108017 -0.046398 0.009053 -0.144779 -0.044441 0.119880 -0.138712 0.069976 0.001124 -0.051024 -0.021415 -0.141171 -0.099495 0.020177 0.064159 0.270121 0.171153 -0.006667 -0.055210 0.069134 0.056654 0.100845 0.135840 -0.168987
21 0.137532 -0.036088 0.455660 -0.365149 0.010798 -0.255214 -0.063586 0.116445 0.037524 -0.005587 0.147362 0.000880 -0.267825 -0.280176 0.376493 -0.048293 -0.127908 -0.085021 0.229594 -0.022518 -0.182597 -0.242947 0.143020 0.074362 -0.160139 -0.234446 -0.316928 0.292170 0.056708 0.106545 0.116870 -0.066978 0.085268 -0.255416 -0.322338 -0.073352 -0.240230 -0.345398 0.054226 0.322431 -0.138934 0.112910 0.177913 -0.260741 -0.291948 0.130658 -0.043001 0.054249 -0.204629 -0.092266 -0.136479 -0.163456 -0.314406 -0.123538 -0.101563 0.277741 0.014080 -0.384217 0.176062 -0.071222 -0.042341 -0.216559 0.047457 -0.235876
27 0.228693 -0.056769 0.384567 -0.380366 0.059683 -0.027791 -0.139057 0.226820 -0.226923 0.007198 0.081215 -0.024915 -0.134874 -0.203168 0.573045 0.293038 -0.139244 0.007052 -0.019422 -0.179018 -0.297787 -0.263849 0.210540 -0.182244 -0.053600 -0.254156 -0.050852 0.309707 -0.002832 0.114888 -0.027400 -0.084790 0.023959 -0.219765 -0.362695 -0.164248 -0.240480 -0.239289 0.162554 0.332105 -0.219258 0.197749 0.148604 -0.378967 -0.440641 0.079858 -0.157721 -0.038198 -0.097713 0.053626 0.055268 0.088951 -0.345319 0.007063 -0.088426 0.295570 0.095962 -0.328587 0.280740 -0.010562 0.003845 -0.260707 -0.159209 -0.204546
12 -0.185729 0.136961 -0.247060 0.047565 -0.082876 -0.050174 -0.036866 -0.099181 0.014941 0.067093 -0.126485 0.004028 0.077162 0.164139 -0.366407 -0.110200 0.142006 0.178268 -0.060874 -0.202446 0.155161 0.255983 -0.096029 0.018133 0.130911 0.169919 0.125520 -0.295144 0.149507 -0.032244 -0.078092 0.113428 0.116958 0.066089 0.319744 0.139839 0.244822 0.065522 -0.016101 -0.115226 0.143512 -0.045955 -0.004699 0.240155 0.095705 -0.017445 0.211965 -0.172089 0.019207 0.069782 -0.051500 -0.065478 0.207106 -0.077157 -0.055417 -0.186605 -0.242655 0.095832 -0.259392 -0.081371 -0.055859 0.022960 0.049264 0.119147
