3735 64
1317 0.357756 0.183753 -0.137682 0.831669 -0.149920 -0.357069 0.884073 -0.609332 0.195407 -0.205656 -0.029063 -0.468441 0.191486 0.175830 0.092062 -0.080177 0.163584 -0.198181 -0.231052 -0.113974 -0.229450 0.365209 -0.577772 0.771113 0.535732 -0.048057 0.000433 -0.122030 -0.094417 -0.739927 -0.067061 0.185213 0.469968 0.763834 0.162074 -0.513669 0.017659 0.048790 -0.436708 0.187448 -0.190515 -0.043823 0.112668 0.322917 -0.257369 0.199880 0.940571 -0.114211 -0.380651 -1.405624 0.270780 -0.656483 -0.000175 -0.016965 0.323466 -0.206377 0.146750 -0.471867 -0.002904 0.520039 0.183916 -0.357401 0.464710 0.163312
1245 -0.155580 0.017769 0.079898 0.927097 0.157688 -0.666440 -0.208252 -0.322164 0.312937 -0.723633 0.068537 -0.280162 0.280472 -0.009975 0.655418 -0.622340 0.515243 -0.101867 0.748664 -0.478134 -0.082287 -0.260549 -0.733697 -0.074789 0.544851 0.069447 -0.177949 0.112230 -0.193805 -0.476056 -0.242351 -0.359058 1.280046 -0.326311 0.469038 0.095914 0.114071 0.270512 0.297580 -0.528046 0.501174 -0.525020 0.951064 0.003799 -0.186781 -0.193392 0.242833 0.037904 -0.061383 -0.286658 0.580603 -0.059970 -0.096003 -0.099022 -0.269076 0.192524 -0.383892 -0.226618 0.330284 0.084423 0.493484 -0.248771 0.024871 -0.800122
2018 -0.373406 -0.144707 -0.196423 0.441803 0.424705 -0.125413 -0.099894 -0.465359 0.038843 -0.696443 1.193951 0.611629 0.019447 0.397069 0.183612 -0.308365 0.026367 -0.157182 0.233497 0.103302 -0.367054 -0.001766 -0.454956 0.655181 0.455905 0.013678 0.419411 0.730329 0.287016 -0.238631 0.150040 -0.150294 0.879171 -0.284741 0.238705 0.047467 -0.040160 0.242136 0.147680 -0.089341 0.234552 -0.171554 0.244014 -0.323806 -0.587399 -0.653138 0.003494 0.419150 0.370092 -0.705535 0.338467 0.060565 -0.382081 0.606816 0.215111 0.389170 -0.686231 0.101563 0.148705 -0.015807 -0.104668 -0.871220 -0.011774 -0.536020
856 0.136416 0.417964 -0.040608 0.508455 0.417412 -0.434405 0.063465 0.058917 -0.300747 -0.812729 0.523885 0.237006 -0.141195 -0.420317 0.114504 0.077451 -0.044633 0.263665 -0.083519 1.025552 -0.473214 0.266191 -0.658817 0.916206 0.114323 0.351410 0.389735 0.804339 0.706302 -0.562136 -0.254214 0.152624 1.011515 -0.135605 0.340499 0.345370 -0.295524 -0.148646 -0.195924 0.401169 -0.599352 -0.126917 -0.377952 0.483595 -0.264123 -0.790364 -0.315934 0.665843 0.168798 -0.154628 0.389843 0.254963 -0.333486 0.659515 -0.274194 0.173900 -0.640842 -0.116657 -0.101390 -0.078095 0.288250 0.051746 0.004449 -0.332237
2001 -1.069188 0.288187 0.304335 0.623245 0.608280 0.321284 0.357771 -0.005903 -0.406934 -0.227557 0.518632 0.319501 0.430807 -0.086530 -0.659435 -0.446884 0.374978 0.500705 0.002037 0.144745 -0.316055 -0.345945 -0.032792 -0.800147 0.451329 0.466312 0.515636 0.008362 -0.292248 -0.931479 -0.470411 -0.410306 0.155835 -0.048675 -0.574306 0.997995 0.599029 0.752159 -0.354981 0.167352 -0.226350 -0.024410 0.214031 -0.082199 -0.038401 -0.390820 -0.134825 0.103914 -0.070888 -1.474775 0.008829 0.284448 0.577919 0.190711 0.481231 -0.553269 -0.049733 0.082129 0.301110 -0.427513 -0.759773 0.630967 0.545797 -0.131473
2338 0.243503 -0.527909 -0.222058 -0.361755 0.115963 0.261682 -0.503356 0.146496 0.868618 -0.526918 0.762022 0.514637 0.288620 -0.877079 -0.064384 -0.117886 0.980027 -0.547309 -0.218556 -0.354299 -0.402186 -0.130756 -0.090835 -0.261370 -0.680742 0.154227 -0.158220 0.680464 -0.217419 -0.827086 0.095653 -0.171990 -0.467679 -0.289873 -0.439626 0.504565 -0.319381 -0.486342 -0.398325 -0.085554 -0.303781 -0.357858 -0.192025 1.097103 -0.206462 0.182084 0.108019 1.207190 0.163640 0.143876 -0.732647 0.098741 -0.151255 -0.184252 0.370624 -1.187381 -0.092580 0.050617 0.042515 -0.128358 0.595069 -0.670919 0.694599 -0.766871
717 -0.091656 -0.798810 0.188921 0.453359 -0.377277 0.470903 -0.426106 -0.059749 0.153423 -0.859419 0.954172 -0.253012 -0.294395 -0.061582 0.146313 -0.516511 -0.019677 -0.522475 0.127849 -0.376928 0.224462 -0.032223 -0.126275 -0.051972 0.112011 0.234524 -0.608063 0.043676 -0.126238 -0.787360 -0.644335 0.839212 0.560867 -0.040571 0.720997 -0.563020 0.106250 -0.176268 0.059187 0.445285 -0.087834 -0.708813 -0.429742 0.003497 -0.256787 -0.462101 1.020826 1.114493 0.568667 0.011262 -0.650669 0.209401 -0.819169 -0.008217 -0.116430 -1.020689 -0.887858 0.473524 -0.359695 0.828228 0.933295 0.282661 0.129492 -0.026585
667 0.678780 0.103505 -0.083715 -0.010289 -0.095179 0.242315 -0.772512 0.377231 -0.347933 -0.051889 0.219500 -0.206746 0.573370 -0.363995 -0.689766 -0.473198 0.670936 -0.268994 -0.093176 -0.033913 -0.446904 -0.337083 -0.585319 -0.277237 0.399041 -0.567758 0.176222 1.024506 0.333071 -1.370620 -0.309670 0.326839 0.262075 -0.842675 0.267650 0.122419 0.395014 -0.383465 -0.103442 0.235594 -0.244366 -0.198502 0.482313 0.226865 -0.597324 0.112174 0.292344 0.385688 -0.613008 -1.095917 -0.268766 0.378354 0.624746 -0.616129 0.461535 -0.119978 0.590214 -0.269308 -1.071889 -0.447577 -0.147507 -0.307107 -0.846121 -0.306405
424 0.311979 -0.629156 -0.358553 0.781459 0.249169 0.249616 -0.906102 0.458369 0.751545 -0.750572 -0.143482 0.304653 0.635715 -0.083169 -1.206949 -0.845499 0.152768 0.916733 0.191009 0.048451 -0.105722 0.513328 -0.393773 -0.598689 0.979033 -0.197422 0.205419 0.358247 0.329692 -0.680792 0.411881 0.451268 0.244651 0.807013 0.880319 0.009469 -0.663616 0.375589 -0.011969 -0.160371 -0.366405 -0.452572 0.345016 -0.031286 -0.762118 -0.556968 0.563014 0.849675 0.399874 -0.270578 -0.266381 -0.253730 0.816232 0.337191 0.384378 0.160220 -0.851756 -0.239953 -0.454546 -0.377199 0.510926 0.105034 0.621496 -0.057036
718 0.948429 -0.108408 -0.523767 0.219730 0.516103 0.714132 -0.153507 -0.149268 -0.572731 0.066363 0.800498 0.823347 0.506900 -0.703252 -0.439446 -0.083266 -0.656187 0.449582 0.494654 0.507815 0.295182 0.797996 -0.029398 -0.503936 0.126009 0.301228 0.701075 -0.046247 0.185577 -0.568317 -0.887065 0.296268 0.141006 -0.423344 0.490626 -0.276455 0.770574 -0.727946 0.817331 -0.072893 -0.383408 -0.448712 -0.082246 0.375526 0.236463 -0.688030 0.690972 -0.185314 -0.079600 -0.691363 0.269997 0.484171 -0.008304 -0.044854 -0.092693 -0.610591 -0.174794 -0.135816 0.141428 -0.638583 0.741579 -0.644149 0.931761 -0.790780
754 0.226687 -0.825106 -0.008260 -0.031080 -0.255200 0.161434 -0.504784 0.008473 0.466904 -0.853981 0.486456 0.554546 -0.199542 0.150288 0.466403 -0.401688 0.374118 -0.322206 -0.374904 0.271580 0.163085 -0.110912 0.115462 -0.183452 0.078845 0.287078 -0.859168 -0.018546 0.222892 -0.459527 -0.402539 0.432142 1.144544 -0.479478 0.825215 -0.420038 -0.088633 0.612145 0.090723 0.232784 -0.491044 -0.139186 -0.176885 -0.145400 -0.286708 -0.404324 0.359964 1.101218 -0.202358 -0.331473 -0.600506 0.567776 -0.362136 0.207712 0.096769 -0.863978 -0.278500 0.278886 0.457022 0.457573 1.258827 0.676416 -0.235737 0.030081
427 0.634610 0.019231 -0.159247 -0.613795 -0.150656 -0.270089 0.241358 0.445138 0.056129 -0.208274 1.090807 0.110271 -0.050947 -0.796712 -1.326526 -0.201824 0.199553 -0.721913 0.328348 -0.014922 -0.220606 -0.275336 -0.031696 0.277150 0.632046 0.268472 0.486897 0.941440 0.124697 -0.909738 -0.186071 -0.862882 0.006510 0.585233 -0.650042 0.143759 -0.295836 0.320456 -0.512261 0.493935 -0.761261 -0.089905 -0.387196 0.461717 0.300907 -0.100641 0.819050 0.331106 -0.162191 -0.050172 0.629502 -0.200855 0.422146 0.594186 0.515457 0.058479 0.128220 -0.358180 0.992847 0.690782 0.798364 0.045456 0.295057 0.500533
2098 0.443772 -0.378932 0.526669 -0.220788 0.299427 0.897925 0.084343 -0.463232 -0.344433 0.383660 0.537453 0.173702 -0.226159 -0.005652 0.225373 0.308636 0.577808 0.367051 0.156516 -0.198960 -0.783188 -0.228532 -0.678140 0.760890 0.524734 0.783475 0.701152 0.448375 0.084709 -0.123055 -0.718930 -0.613093 -0.119069 -0.288765 -2.365599 -0.292878 0.210256 0.257672 0.024091 -0.216458 -0.944449 -0.224106 0.179943 -0.705522 -0.050410 0.638521 0.839858 -0.323201 0.259389 0.048374 0.230515 0.539428 0.364425 -0.020171 0.015386 -0.531277 0.493452 -0.089578 0.845880 -0.317453 0.042906 -1.193087 -0.957985 -0.575876
559 -0.022420 -0.063983 -0.613613 0.361600 0.527844 -0.063613 -0.275642 -1.041363 0.360320 0.438820 1.180825 0.487188 0.417483 -0.267204 0.642904 -0.262943 0.566296 -0.040707 0.720953 -0.794007 -0.460033 0.447223 0.235418 -0.274840 -0.190898 0.072569 0.012940 -0.175232 -0.263364 0.030720 -1.558875 -0.484317 0.244582 -0.847694 0.345687 -0.690659 0.001947 -0.089213 -0.673246 -0.049861 0.167804 0.077828 0.522429 -0.498688 0.604285 -0.000955 1.030987 0.267129 -0.301466 -1.129583 -0.743591 0.059868 0.534455 -0.525005 0.713455 -0.649857 1.065650 -0.873804 -0.500799 0.324927 0.864421 -0.504088 -0.182099 -0.218805
1246 0.651848 0.214546 0.505804 0.350311 -0.477031 0.855165 -0.816304 -0.430104 -0.263795 -1.531651 -0.041524 0.331715 -0.094789 -0.088028 -0.171146 -0.734462 -0.231473 0.820559 -1.292818 0.549732 -0.461350 -0.262696 0.246144 -0.298168 -0.205980 0.326069 0.462602 -0.222609 -0.346132 -0.344443 -0.326402 0.276565 -0.951341 0.448660 -0.280867 -0.095634 0.664782 -0.268646 -0.069905 -0.473874 0.073879 -0.285799 -0.029800 0.918797 0.162301 -0.764285 0.592811 0.354845 0.223024 -1.045022 0.108645 0.023997 -0.751613 0.532228 0.442603 -0.311448 -0.156801 1.242028 0.085957 -0.230852 0.280382 -0.018452 0.307484 -0.575917
666 0.421158 0.573498 -1.059385 0.642037 0.668967 -0.099129 -1.318745 0.034130 0.218317 -0.696094 0.676669 0.446120 0.629599 0.126823 0.706608 -0.182474 -0.008793 -0.136811 -0.061043 -0.094515 -0.547773 -0.132208 -0.358737 -0.411999 -0.821415 -0.274938 -0.979292 -0.062096 -0.691761 -0.847216 -0.742001 0.261020 0.332933 -0.075740 0.793019 -0.085584 -0.667249 -0.027468 0.303303 0.081155 -0.331439 -0.318091 0.203371 -0.283454 0.341915 1.134843 0.426703 -0.203713 -0.461633 -0.716757 -1.007116 0.278726 -0.043008 0.352834 0.782484 -0.222022 -0.932131 1.076264 -0.393899 -0.035755 0.851143 -0.225786 0.749333 -0.059114
367 0.291720 0.703824 0.085277 1.320863 -0.013251 -0.923369 0.514619 -0.555669 0.014869 0.103778 0.420837 -0.384208 -0.042067 0.876087 -0.644072 -0.001885 -0.338305 -0.246016 -0.311314 0.752656 0.141013 0.492975 -0.586066 0.242140 0.721184 -0.027596 0.319423 -0.465909 -0.482750 -0.734955 0.251834 -0.300440 0.868073 0.107945 0.170030 -0.476023 0.355866 -0.058193 -0.704449 0.886962 -0.385100 0.432214 -0.144045 0.742380 -0.587982 -0.140925 1.473090 0.056064 0.256350 -1.403321 0.156779 0.089128 -0.116674 -0.117763 -0.355241 -0.338355 -0.065387 -0.122736 -0.108396 0.533960 0.212886 -0.053564 0.696183 -0.149194
2077 -0.299482 -0.230093 0.970198 -0.519518 0.353985 -0.624840 0.496828 0.102440 -0.544657 -0.604609 0.632319 -0.821289 -0.754111 0.387664 -0.076986 -0.000029 0.327753 0.508436 0.444830 -0.385734 -0.722015 -0.914318 -0.781933 -0.497496 0.380625 1.491643 -0.189422 -0.233339 -0.589256 0.952135 -1.428572 -0.210572 -0.135684 1.096946 -0.386832 -0.114147 0.200163 1.161153 -0.425936 0.610454 -0.028223 -0.020316 0.634698 0.093712 -0.006520 0.241268 -0.102730 0.372972 0.677933 -0.844225 0.607831 0.142406 -0.011651 0.247623 -0.085253 -0.806776 -0.208238 0.380960 0.773929 -0.088666 0.521243 -1.076767 0.148343 0.731682
352 -0.785826 0.757767 0.533946 0.892000 0.655803 0.337049 -0.063584 0.221588 -0.533570 -0.507485 0.490885 0.403937 0.637119 0.247738 -0.614855 -0.641155 0.277292 0.497256 -0.380060 0.460469 -0.695338 -0.442774 -0.336078 -0.901075 0.160278 0.411623 0.053881 0.072229 -0.590363 -0.765288 -0.672463 -0.376069 0.622940 -0.222739 -0.641838 1.166556 0.622944 0.739789 -0.444206 -0.218481 -1.116741 0.276369 0.166029 -0.135114 -0.288109 0.396160 0.025047 -0.441487 0.038250 -1.100015 -0.142200 0.207989 0.155197 0.288901 0.246233 -0.154482 0.044514 0.577441 0.230677 -0.626543 -0.616273 0.648520 0.656645 0.118157
558 0.059466 0.224099 0.477173 0.335864 0.342880 -0.291327 0.137317 0.393979 -0.201825 0.235195 -0.142115 0.006325 -0.595126 -0.123646 -0.300556 -0.403448 1.312839 0.332163 0.157208 0.791577 -0.479502 -0.171764 -0.523081 0.461000 0.339678 0.344179 1.623355 0.588912 0.643784 0.232999 -0.217565 -1.470636 0.239632 -0.512706 -0.830661 -0.771873 -0.035269 -0.672402 -0.292437 -0.215430 -0.262756 0.583639 0.702864 -0.626878 -0.205717 -0.265701 0.119270 0.683388 -0.150433 0.215612 0.082816 -0.367226 1.378397 -0.533998 0.779522 -0.259258 -0.445874 -0.740900 -1.072590 0.364218 -0.427813 -0.803851 -0.459603 -1.154787
3149 -0.766177 -0.703668 1.041979 -0.506038 -0.251522 0.213771 0.175991 -0.766531 -0.758892 0.423510 0.283704 -0.550788 -0.904037 -0.453990 0.678129 0.226076 -0.406269 0.984237 -0.041490 -0.316529 0.006792 -0.216606 -0.032545 -0.519662 0.583641 0.785407 0.065872 -0.254468 -0.234853 0.410399 -1.223574 -0.187386 -0.350941 0.783861 0.436355 0.238718 1.954883 -0.091645 0.673666 0.584602 1.374393 -0.087673 1.336988 0.247879 0.187366 -0.186616 0.669006 -0.182875 0.061241 -0.238881 0.575680 0.573122 0.426693 -0.327739 -0.001459 0.354171 -0.419679 0.131363 1.065075 0.133415 0.445718 0.010370 -0.279675 -0.224503
697 0.334422 -1.329471 0.619327 -0.866978 -0.031737 0.057859 -0.057875 -0.292441 -0.395495 -0.487068 -0.197612 0.576132 -1.225890 -0.288777 1.281612 0.009749 0.604902 -0.140327 -0.821857 -0.385357 -0.526616 -0.681217 -0.089091 0.025386 0.553695 0.830586 -1.693410 -0.115490 0.177254 0.207286 -1.846980 0.315397 0.145977 0.097113 0.347742 0.310248 -0.136300 0.112910 -0.064698 0.389469 0.028114 -1.165240 1.144536 0.078066 0.389438 0.085037 0.800374 0.586871 0.048751 -0.116664 -0.365226 0.512824 0.506136 -0.118420 -0.377103 -0.625442 -0.986735 0.813865 0.832544 -0.217648 0.359069 -0.152828 -0.836664 0.019258
369 0.292721 0.347701 -1.084753 0.406137 0.662259 -0.219543 -1.013941 -0.404990 0.217550 -0.653655 0.693439 -0.092911 0.577556 -0.086168 0.687153 0.015445 -0.094824 0.129051 0.129900 -0.057159 -0.800419 -0.100495 -0.446242 -0.231618 -0.880948 -0.111411 -0.919457 -0.396670 -0.269427 -0.904361 -0.450916 0.332717 0.380096 -0.229668 0.742402 -0.228800 -0.775488 -0.341426 0.524764 0.033291 -0.250931 -0.227654 0.138151 0.030480 0.594599 1.465502 0.641589 -0.583331 -0.364452 -0.584098 -1.141938 0.385634 -0.020688 0.191290 1.062667 -0.125657 -0.915733 1.037526 -0.239151 -0.114573 1.026181 0.010778 0.889815 -0.415129
4295 0.534821 -0.460857 -0.829021 -0.001515 1.131727 -0.576088 -0.026043 0.384786 0.419269 0.021735 0.556144 1.246076 -0.205533 -0.181395 0.941068 -0.283566 0.940598 0.392478 0.116779 -0.204782 -0.107357 -0.324828 -0.240760 -0.130221 0.352531 -0.203071 -0.248627 0.147868 0.362796 -0.922109 -0.282009 0.003681 0.565122 0.314291 1.140791 -0.673830 0.267753 0.044995 -0.082092 0.359570 -0.493580 -0.625280 -0.579891 0.089956 -0.079250 -0.692190 0.414193 0.997381 -0.104300 -1.574972 0.241508 0.660103 0.108765 0.460852 0.237776 -1.391216 -0.131940 -0.847054 0.933485 0.388309 0.422170 1.048584 0.150901 -0.183024
3813 -0.079208 0.302574 0.452589 -0.220167 0.160705 -0.182310 0.269634 0.077482 0.009401 -0.700326 0.120921 -0.166946 -0.789536 0.305553 0.039136 0.391056 0.348767 -0.306581 -0.719799 -0.468826 0.188154 -0.663303 0.182909 0.336766 0.634970 -0.234519 -0.390344 0.633946 -0.505299 -0.399016 -0.144202 0.412678 -0.328673 0.728251 0.762648 0.012583 0.877284 0.210820 -0.111454 0.648368 1.167446 -1.030471 0.175706 0.697442 -0.249083 -0.696095 0.112966 0.915579 1.045923 -1.871631 1.206826 0.018856 -0.788042 0.876178 0.013410 -0.456647 0.009617 0.196366 1.035990 0.068787 0.065200 -0.205018 -0.296260 0.682188
353 0.931967 0.273059 0.014097 0.736163 0.631353 -0.293239 -0.044259 0.551034 -0.539168 -1.704902 0.451459 0.495617 -0.405011 -1.144454 0.315516 -0.514770 0.026752 -0.000972 -0.114982 0.466159 -0.864022 0.216787 -0.895223 0.593002 0.344459 0.779592 0.526862 0.938636 0.772989 -0.958549 -0.365418 -0.359289 0.729925 -0.040061 0.214829 0.702810 -0.905549 -0.320335 -0.116859 0.432069 -0.660313 0.000025 -0.390391 0.136333 0.041727 -0.499389 -0.635773 0.611175 0.409754 -0.057524 0.336190 0.398578 -0.424527 0.545422 -0.153767 -0.143114 -0.828336 0.050700 -0.193304 -0.175836 0.331097 0.108458 -0.103832 -0.223749
3677 0.783554 0.352375 0.176103 0.607054 0.083961 0.655895 0.963121 0.540580 -0.100655 -0.072445 0.675567 0.551191 -0.549133 -0.487053 -0.921334 -0.726072 1.383333 -0.239239 -0.838437 0.569861 0.152907 -0.801036 -0.108312 -0.346277 0.365396 -0.000222 -0.271485 -0.237032 -0.144995 0.480947 -0.882878 -0.516893 0.485592 -0.286490 0.921223 -0.368897 0.811831 -0.796496 -0.666988 0.713300 -1.005558 -0.100646 0.172712 0.797817 0.165795 0.021844 0.914796 0.585402 0.554842 -0.969391 0.241522 -0.883122 -0.135570 0.276812 0.352804 -0.378052 -0.143104 0.064363 -0.780315 -0.165541 -0.030812 -1.130641 1.174612 0.083921
426 0.466362 -0.783380 0.738746 -0.218172 -0.046331 0.306619 0.210931 -0.411039 0.512420 0.554193 -0.842079 0.186955 0.187795 -1.231843 0.603428 -0.747370 1.163348 0.152542 -0.549569 -1.121232 -1.529068 -1.386760 0.876428 -1.353870 -0.521814 0.459240 -0.408314 -0.187991 0.061312 -0.216470 -0.265189 -0.318250 -0.492577 -0.529152 0.213038 -0.516771 -0.133839 0.107963 -0.987437 -0.096014 -0.566790 -0.706583 0.228719 0.086725 1.055696 0.557046 -0.021710 0.619193 0.873172 -0.561855 -0.153971 -0.263074 0.135948 -0.456131 0.440373 -0.575411 0.983648 0.330715 -0.426929 0.013789 -0.147798 0.728217 0.570405 0.212043
478 0.809544 0.289501 0.161326 -0.026115 -0.000849 -0.546377 0.462371 -0.529580 -0.053967 1.113296 -0.256884 -0.736148 -0.045803 -0.268195 0.438050 0.364526 -0.810121 0.394187 -0.434457 -0.290691 -0.368696 0.413142 0.382565 1.058239 0.777835 0.288519 0.233208 -0.967439 -0.513597 0.318269 -0.770067 0.405011 -0.535275 0.702666 -0.517853 -0.796422 0.405922 0.078737 -0.212155 0.777438 0.269512 -0.388854 -0.175146 -0.294868 0.098096 0.842210 0.055693 -0.925475 0.604298 -0.996430 0.916660 0.131819 0.361600 -0.486768 0.121780 -0.601776 2.004301 0.125561 0.776688 -0.586383 0.283816 -0.452902 -0.217324 0.602576
731 -0.285052 0.546245 -0.797817 0.380542 -0.908013 0.110110 -0.150322 -0.811771 0.598161 0.134114 0.191275 0.087480 0.947927 -0.305548 -1.007317 -0.375705 -0.751832 -0.365468 -0.471393 0.068526 -0.588205 0.802859 0.651431 -0.450279 -0.387592 0.321994 0.897021 -0.356144 -0.768043 -0.964656 -0.059161 -0.394654 -0.972072 -0.878942 -0.830123 -0.088730 0.070895 -0.215539 -0.251662 -0.367510 0.755763 -0.608364 -0.373253 -0.368766 0.513383 0.437732 -0.462468 -0.319696 1.403920 0.455651 -0.731925 -0.407456 0.912098 -0.502476 0.269815 -0.001302 0.839417 0.796274 0.028826 -0.169472 0.218344 0.400688 1.144465 -0.922327
1022 0.335725 0.680582 -0.180803 0.323383 -0.324547 0.412359 0.214279 -0.504572 1.024693 -0.007161 -0.620929 -1.081160 0.274186 -0.866016 -0.054548 -0.297859 0.057053 -0.346608 -0.672922 -1.218577 -0.012202 -0.040325 0.429761 0.629136 0.178591 -0.228113 -0.359518 -0.106029 0.103496 -0.459984 0.560261 0.381553 -0.694032 0.423229 0.021398 -0.511489 -0.836628 -0.429318 -0.153333 -0.439620 0.896664 -0.348472 0.784363 -0.355638 0.545255 0.094139 -0.753329 0.447700 1.245752 1.145207 0.537727 0.198778 1.174655 -0.331969 -0.220892 0.314226 1.735498 0.427867 0.189468 0.699491 0.221148 0.281684 -0.230907 0.916183
1217 0.946887 -0.542109 0.189539 -1.276397 -0.399689 0.108769 -0.038518 0.260140 0.064993 0.814195 -0.693237 -0.480753 -0.546387 -0.513234 0.385963 0.455077 0.047632 -0.430133 -0.695328 -0.364087 -0.420172 -0.633741 0.559380 0.059543 -0.824773 0.742278 0.555834 -0.583165 0.131148 0.904459 -0.048519 -1.155292 -1.273478 -0.217309 -1.355115 -0.554953 0.186845 0.071353 -0.845866 0.324055 -0.156816 -0.030907 -0.035466 -0.162359 0.193122 0.807501 -0.013090 0.453206 0.723509 0.448099 0.094368 0.891013 0.871382 -1.029957 -0.157343 -1.118826 0.746841 1.044804 0.267143 0.078580 -0.074049 -0.336061 -0.611369 -0.134458
1999 -0.006037 1.383366 -0.031131 0.369513 -0.114557 -0.673200 0.475212 -0.363443 -0.302272 -0.233310 -1.356789 -0.845130 0.294561 0.410278 0.161632 -0.074120 0.556013 0.067394 0.188875 0.277177 -0.446295 -0.278524 0.017258 0.959594 -0.116462 0.179358 0.493493 -0.413571 -0.424543 0.648286 0.945990 -0.827922 -0.018057 1.208958 -0.219135 -0.120843 -0.392685 0.592097 -0.889073 -0.934368 1.505984 0.500605 0.288098 -0.780401 0.291921 0.224515 -0.919445 -0.056896 0.811770 -0.769599 0.244321 -0.711584 0.512705 0.434308 0.125357 0.306632 0.912747 -0.008529 0.533301 0.423976 -0.590128 0.107461 -0.144047 0.615998
2017 0.442226 -0.373851 0.021103 0.065816 -0.124132 0.205441 -0.082427 0.175357 -0.673465 0.894149 -0.634077 0.255523 -0.201748 0.571362 0.124859 0.858938 -0.790963 -0.050138 -0.837499 0.176585 0.392351 0.364693 0.045887 0.613790 -0.180863 -0.080849 0.194267 0.775381 -0.169580 0.187506 0.706502 -0.697784 0.076699 -0.536144 -0.326504 1.098215 -0.025909 0.996649 0.359741 0.352495 -0.550708 -0.056748 -1.043499 -0.520268 -0.693959 0.762399 0.265969 -0.543003 -0.209229 -0.944550 1.164232 0.881251 -0.019018 -0.214092 -0.437570 0.525842 -0.644783 0.078205 0.932684 0.051397 -0.631197 0.774758 -1.249039 0.454497
2377 -0.324451 0.537029 0.354717 -0.479880 0.532141 -0.481137 -0.623421 -0.360503 0.631941 0.452886 -0.293485 -0.667923 -0.525605 -0.190602 1.437234 1.200566 -0.015205 -0.450621 1.167973 -1.260785 -0.696697 -0.020115 0.196212 1.109017 -0.551275 0.313023 -0.496835 0.232107 0.043892 0.649539 0.214121 0.246962 -0.396009 0.805845 -1.402800 -1.253877 -0.207611 -0.096730 0.036189 0.373659 0.468245 -0.063762 0.379569 -1.028772 0.265406 0.394668 -0.500038 0.291687 0.102406 1.403088 0.257010 -0.144288 0.307887 -0.042862 0.178026 -0.338745 0.359758 -0.406878 1.097027 0.153846 -0.223148 -0.501494 -0.268784 -0.195027
3136 -0.186880 -0.829559 -0.137555 -0.365646 -0.341600 -1.366835 -0.475520 -0.002325 0.357695 -0.217651 0.374801 -0.486692 -0.691490 1.634451 -1.140279 0.314143 -1.037750 0.094820 -0.252416 -0.203380 0.431594 1.553147 -0.746862 0.708369 1.041110 0.388492 1.075948 0.328297 0.133289 0.048391 0.479670 0.613589 -0.223785 0.011120 0.652800 -0.986741 -0.805543 0.340833 0.036220 0.711266 0.652388 -0.545142 -0.329650 -0.396354 -1.162445 -0.377349 -0.046251 0.356467 1.081800 0.447482 0.520755 -0.111721 0.544409 -0.841592 0.527071 0.366263 -0.615582 0.295952 0.261877 0.128844 0.279546 0.304923 -0.590820 0.089977
3363 -0.174056 0.485955 0.383147 -0.855977 -0.746759 0.049741 -0.016742 -0.201513 0.022794 -0.176047 -0.446917 -0.131854 -0.440919 0.301734 0.263391 -0.020301 -1.324856 0.655013 -0.963722 0.914081 -0.712909 0.460362 0.807548 -0.520340 0.008510 0.636213 0.353509 -0.335957 -0.205392 0.335368 -0.881290 -0.488218 -0.481522 0.102435 -0.296268 0.169786 -0.278903 -0.034864 -0.225165 0.298678 0.250183 0.163320 -0.207190 0.173353 1.364241 1.089308 0.235866 -0.469844 0.137447 -0.095092 -0.064001 0.150100 0.763658 -0.015999 -0.349843 -0.492284 0.440693 1.546992 1.157627 0.441892 1.312142 0.828069 0.008894 0.739884
4033 0.961001 -0.123917 -0.104130 0.283920 -0.007599 -0.348531 0.802240 0.404799 -0.777088 0.957946 -0.628145 0.155715 -1.083926 0.767192 0.078481 0.204082 -0.327017 -0.385042 -1.114628 -0.038416 0.604063 -0.621405 -0.465643 0.573045 0.660231 0.190000 0.823219 -0.162821 -0.251165 0.362151 0.918310 -1.065586 -0.801016 0.039948 -0.889320 -0.249129 0.536382 0.102607 -0.198385 0.918120 -0.558430 -0.053074 0.330777 -0.244033 -0.133727 0.471265 0.349461 0.064895 0.352338 0.340535 0.801033 0.606032 -0.526726 -0.953126 -0.464773 0.288407 -0.460233 0.909292 0.159677 0.658232 -1.323392 -0.766337 -0.236977 0.318543
4733 0.720737 -0.344349 0.667903 -0.395483 -1.097837 -0.823769 0.115224 0.114294 -1.200952 -0.026203 0.329798 -0.149420 -1.152605 1.177899 -0.005508 0.020959 0.091649 0.797175 -0.671537 0.647551 0.191895 0.019935 -0.404786 -0.131770 -0.202687 0.822414 0.099295 -0.763610 -0.361544 1.311004 -0.402579 -0.776970 -0.803163 0.098405 -0.149243 -0.192054 -0.415086 -0.074306 -0.079205 -0.673740 0.798786 0.587535 1.029690 -0.151585 -0.096738 -0.099398 0.149642 -0.548153 -0.339287 -0.069087 -0.817449 -0.692432 0.342589 -0.925081 0.419729 0.498993 -0.251129 0.720604 -1.508811 0.986030 0.680239 -0.827727 -0.295359 0.550407
4754 0.789501 0.060051 0.981802 -0.240795 -0.335281 0.810501 -0.194534 0.177025 -0.401615 0.367044 -1.134841 -0.149391 -0.193083 -1.099836 0.651757 0.357678 0.937937 0.124034 -0.898847 0.574197 -0.607972 -0.978278 0.076784 0.729223 -0.713844 -0.444365 0.067411 0.729227 0.135571 -0.023276 0.883517 -1.001179 0.791234 0.242460 -0.448934 0.034556 0.873002 -0.313854 0.353482 0.342160 -0.247731 0.683304 0.356265 0.373777 -0.845767 0.734620 0.581400 -0.091136 -0.246873 -1.162364 0.567738 -0.063247 -0.788865 0.587595 0.210177 0.554155 0.019449 -0.443095 0.509734 0.106410 -0.391143 -0.689131 -0.146311 -0.290685
5552 -0.710463 0.543003 -0.929296 -0.214148 0.871043 0.094702 -0.106274 -0.968520 0.311009 0.205330 -0.706454 0.045685 0.619050 0.242883 1.142190 0.778795 -0.474812 0.416285 0.241128 -1.286761 -0.242747 0.646007 -0.249887 0.096910 0.309792 -0.214855 -1.236292 0.226051 0.062118 -0.715036 0.498816 0.681318 -1.313542 0.814532 0.577258 -0.390379 -0.104191 0.098652 -0.602313 -0.869629 0.838979 -0.059096 0.215254 -0.669771 0.194869 -0.708422 -0.589269 -0.668394 0.679418 -0.203457 -0.522788 0.406295 0.732497 0.373466 -0.364349 0.282627 0.658357 -1.093974 0.030885 -0.156922 -0.393618 0.438828 -0.851492 0.914415
5729 0.206041 0.542517 -0.754600 0.546241 0.300502 -0.091422 0.560613 -0.293076 0.640236 0.216080 -1.420192 0.251459 -0.017250 -0.354267 0.607977 -0.418385 -0.578721 1.059601 -1.424992 0.171021 -0.762127 0.069250 0.534733 -0.343665 0.529731 -0.376247 -0.138320 -0.281540 0.188881 -0.842941 0.135048 0.285121 -1.147812 -0.162996 0.604096 -0.573109 -1.237775 -0.527231 -1.216455 0.194018 0.116607 -0.261447 -0.842985 -0.220919 1.374052 0.321161 -0.332326 0.163776 1.052414 -0.447045 -0.288656 0.692043 0.862125 -0.183477 -0.464826 -0.563775 0.221017 0.471822 -0.040027 -0.066019 -0.009301 1.202731 0.030508 0.615648
6171 0.557938 0.275234 0.280936 -0.819040 -0.732319 0.018233 -0.545758 0.615789 -0.053710 0.062841 -0.907649 -0.311577 -1.232340 -0.351115 0.552420 0.218667 -0.047707 -0.239304 -0.449173 0.774581 -0.331893 -0.455012 -0.234227 0.581195 -0.933824 0.408648 0.644125 -0.199010 0.426533 1.880352 0.135662 -1.600764 -0.894353 1.098845 -0.676476 -0.444961 -0.513436 -0.630827 -0.764587 -0.155823 0.429466 0.865016 0.465605 0.149041 -0.005406 0.295618 -0.282932 0.544066 0.000218 0.927089 -0.390945 -0.512975 0.682190 0.071731 0.731099 -0.059901 -0.121415 0.577971 -0.096811 0.429203 -0.307203 -0.677484 0.262059 -0.377847
2803 0.850390 0.073832 -1.042463 0.743335 1.232406 -0.969511 -1.148767 0.567987 -0.194241 0.194683 0.047647 0.235965 0.413381 -0.287789 0.323437 -0.984623 0.342841 0.459782 0.161445 0.027634 -0.742649 -0.095412 -1.135536 -0.187320 0.161113 0.026365 0.867962 0.676726 -0.571003 -0.999495 -0.331634 -0.982151 -0.157341 0.805930 0.481784 -0.594866 0.040747 -0.077694 -0.176165 -0.230219 -0.447904 0.025891 0.985212 -0.694339 -0.744491 -0.016924 0.245866 1.079656 0.260513 -0.452053 -0.155122 0.620444 1.126118 -0.945699 1.028518 -0.378630 -1.238483 -0.087187 -0.175887 0.158463 0.411758 -1.237359 0.317275 -0.925918
5037 1.001759 -0.602522 -0.212192 -0.380544 -0.570083 0.323716 -0.231513 0.265902 -0.832645 0.664376 1.527432 -0.584569 -0.222374 -0.871324 -1.329104 -0.068707 -0.482053 -0.603082 -0.956692 0.362241 -0.136234 0.338360 -0.038102 -0.165904 0.485543 -0.163894 -0.093703 0.329134 -0.906006 -0.802657 -0.740747 -0.081761 -0.744258 0.259324 -0.035209 0.250374 0.700480 0.593539 -0.193378 1.261060 0.096860 -0.564451 0.374065 0.332719 -1.017355 0.427111 0.877177 -0.045818 1.072162 -1.228394 0.491115 0.429463 0.715591 -0.138298 0.152573 -0.097263 0.508851 0.103894 -0.345151 -0.464886 0.621091 -1.037443 -0.341884 0.855591
1056 0.002825 -0.029929 -0.764152 -0.425331 -0.350638 0.024440 -0.348280 -0.226164 -0.242464 -0.410023 0.382064 0.713851 0.205491 -0.429307 0.630514 -0.679346 -0.609115 -0.407360 -1.425115 0.901323 -1.588655 -0.502067 0.302234 -1.287919 -0.543668 -0.022702 -1.079564 -0.232341 -0.844176 -0.652767 -0.626747 -0.130878 -1.074579 0.083988 0.871650 -0.009460 0.393833 0.087169 -1.142634 0.305725 -0.242191 -0.261401 -0.046322 0.644121 -0.071552 0.495779 0.474026 0.979329 0.334482 -1.160841 -0.947835 0.221134 -0.155730 0.568406 -0.154741 -0.394967 -0.611245 0.886253 -0.506301 -0.500536 0.716317 -0.253196 0.436090 0.352876
3866 -0.147920 0.529415 -0.860541 -0.276441 -0.254534 -0.648515 -0.566768 -0.715499 0.270257 -0.855533 0.493757 -0.217467 0.089558 0.165025 -0.367094 -0.265355 -0.303515 -0.362461 -0.845676 1.126482 -1.376419 0.535809 -0.339127 -0.157179 0.029303 0.204349 -0.467285 -0.047129 -0.768515 -0.615234 -0.422225 -0.207865 0.139586 -0.298724 0.578575 -0.935975 -0.239960 -0.384632 -0.860102 -0.078982 -0.212351 -0.393479 0.976489 0.229747 -0.469383 0.802358 1.396312 -0.008232 0.637752 -0.124364 -0.906862 -0.585322 0.666418 -0.004935 0.250623 0.844106 -0.655218 0.297941 -0.557845 -0.214297 1.349870 -1.461364 0.301303 -0.057207
4317 0.009669 0.199153 -0.430379 -0.567583 -0.126329 -0.851184 -0.976894 -0.049143 0.498176 -1.328838 -0.364978 0.348871 0.423142 -0.251579 -0.483884 -1.039457 -0.043118 -0.145099 -0.300155 0.162696 -1.114084 0.202137 -0.221608 -0.567849 0.228145 -0.042251 -0.647880 0.802243 -0.651090 -0.637380 -0.378172 0.321200 0.522807 0.186796 1.372190 -0.828102 -0.717680 0.265273 -0.438246 -0.320697 0.393105 -0.948832 0.889836 -0.295640 -0.846218 -0.546820 0.033887 0.777417 1.377415 -0.003921 -0.456058 -0.644115 0.236747 0.090666 0.092115 0.833689 -0.386497 0.043926 -0.385575 -0.586122 1.362167 -0.551562 0.315417 0.197059
6071 0.045036 0.798817 -1.039342 -0.588970 0.478181 -1.438990 0.053315 0.069139 0.155425 -0.521800 0.804001 0.023381 0.158079 0.443839 -0.781101 -0.221254 0.196016 -0.580285 0.390792 -0.172815 -0.511324 -0.170701 -0.242100 -0.098694 0.694274 -0.356802 -0.359560 0.771456 -0.684798 -0.656863 -0.401847 0.069624 0.401529 0.133899 1.259574 0.115545 0.191371 0.136701 0.160748 -0.273381 0.741461 -1.482556 0.929385 -0.001394 -1.020551 -0.029983 -0.663666 0.458887 0.659301 -0.393490 0.243009 -1.082141 -0.037298 -0.089737 0.266359 1.050894 -0.300791 0.598569 0.182645 -0.485335 0.135941 -1.126163 1.101589 0.214360
423 -0.089495 -0.029017 -0.088983 0.454843 0.050988 -1.448516 -0.967165 -0.081626 0.889320 -1.031993 0.664832 -0.017924 -0.231525 0.552821 -0.302698 -0.912211 -0.537878 1.176736 0.094197 -0.023398 -0.703996 0.238911 -1.196017 -1.324322 1.048650 0.912381 0.803062 0.084996 -0.753156 -0.492551 -1.000983 0.242007 -0.034471 -0.050906 0.616059 -0.442451 -0.455923 0.178842 -0.407948 0.331720 0.030203 -0.381695 0.599705 0.194309 0.023814 -0.166949 0.072994 0.145103 1.295874 0.030059 -0.265866 0.456269 0.261279 -0.563515 0.420727 0.108096 0.183752 0.440309 -0.355221 0.312765 1.456555 -0.386213 1.414348 0.235816
4793 0.012322 1.055881 -0.306049 0.225909 -0.994109 -0.652284 -0.691803 -0.040268 0.454422 -0.678333 -0.293461 -0.118106 0.027516 0.239671 -0.412257 -0.467107 -0.179479 -0.096169 -0.392633 1.343721 0.135029 0.041604 -0.030671 -0.648404 -0.299254 -0.278480 0.675110 -0.365010 -0.572706 -0.135435 0.460684 -0.733546 -0.428269 0.264222 1.292361 -0.487392 0.049831 -0.835411 -0.331878 -0.614254 1.441990 -0.228297 0.543672 0.669983 0.286230 0.451309 0.520580 0.575219 0.843381 -0.217696 -0.435547 -0.663077 0.168338 0.368981 0.025659 -0.241338 -0.348465 0.611495 0.059414 1.291635 0.161740 0.395775 1.556249 -0.509271
3981 -0.567525 0.275282 0.004820 0.778314 -0.055250 0.213825 0.349498 -0.331718 0.492114 -0.151379 0.611659 -0.643898 -1.128179 -0.329939 -0.129654 -0.569487 -0.147727 1.328507 -0.592503 0.995100 0.444780 0.331338 -0.629750 -0.023504 1.031831 0.311723 0.704980 -0.358381 0.455286 -0.566820 -0.660372 -0.374301 -0.062101 0.173461 0.381029 0.005210 0.566284 -1.287065 -0.123452 0.128130 0.721710 0.362413 0.328053 0.281039 0.428104 -0.497861 -0.115848 0.135792 1.158607 0.414654 -0.162919 0.755557 1.357761 -0.420253 0.728458 -0.458836 0.055828 0.224635 0.308595 0.620707 0.866824 0.437812 0.526218 -0.563331
4159 0.951182 0.567974 0.087034 0.462956 -0.547182 0.114426 0.790929 -0.014641 0.184267 -0.167595 -0.138165 0.186659 -0.067160 -0.264379 -0.714353 -0.540264 0.719421 0.081971 -0.481797 1.146516 -0.076612 -0.102547 -0.347469 0.996343 1.326941 0.449318 1.226082 -0.169342 0.887763 -0.768940 -0.066151 -0.871322 0.983682 -0.586122 -0.780951 0.272196 0.272698 -0.834614 -0.336473 -0.100709 -0.163318 -0.352923 -0.360487 -0.015624 0.296339 0.519244 0.162572 -0.095317 0.432939 -0.275655 0.228261 -0.055400 0.698411 -0.220024 0.495855 -0.402435 1.298404 0.963782 0.635944 0.545565 -0.063680 0.547408 0.732844 -0.850337
5881 0.092900 0.640870 -0.598859 0.755903 0.716208 -0.809871 -0.121490 -0.754849 0.465421 -0.419191 0.700204 -1.710123 0.200928 -0.112803 -0.218666 0.003292 -0.307356 0.133586 0.245823 -0.229204 -1.048627 0.159901 -0.576555 0.396530 0.695621 0.627691 0.616586 -0.691078 -0.029377 -0.886950 -0.003402 -0.197729 -0.197863 0.294355 0.286157 -1.446721 0.359548 0.037174 -0.383353 0.287410 0.474881 -0.217784 0.643660 -0.392295 0.032651 0.654940 0.431105 0.910588 1.515753 -0.549717 0.624192 0.640389 0.942473 -0.610716 0.614637 -0.643422 -0.037459 0.238145 0.424506 0.334068 0.992682 -0.738402 0.406258 -0.610994
3933 0.762060 -0.341749 -0.637614 0.002885 0.029902 -0.697926 -0.690864 -0.793597 0.340333 -0.446832 1.307876 -0.691793 -0.186362 -0.419433 -0.027081 -0.428073 0.128591 0.461926 -0.420745 -0.002793 -0.897350 0.186287 -0.453825 0.026496 -0.459902 0.625278 0.126840 -0.754695 0.453812 -0.493363 0.047492 0.349574 -0.037729 -0.631672 0.555007 -1.239811 -0.448206 -0.898270 -0.751145 0.473340 0.115931 -0.165455 0.208449 0.025300 0.278454 0.638990 0.178789 0.008890 1.818472 -0.484437 -0.617836 1.044169 0.648810 -0.646433 0.904233 -0.385806 1.210092 0.261568 -0.450597 0.372633 1.092526 -0.307337 -0.125230 -0.074289
4109 0.316164 -0.054916 -0.405423 1.059013 -0.081906 0.735207 -1.567785 -0.068293 0.171193 -0.468338 1.043885 -1.373962 0.185712 -0.312781 -0.451475 0.285277 -0.557431 -0.165005 0.227273 0.279076 -0.293274 -0.100227 -0.523846 -0.322388 -0.359731 0.748957 0.696288 -0.169494 -0.025075 -1.026459 0.201635 -0.056593 -0.787407 -0.087961 -1.359924 -0.525414 0.629462 0.143792 0.181263 0.281078 -0.369278 0.797608 0.127181 0.119161 0.198613 0.272579 0.658894 1.012323 0.322436 0.528212 -0.058343 1.394081 0.621047 -0.287935 0.569445 -0.842903 -0.243387 0.081685 0.459437 0.174277 0.806180 -0.512659 -0.052220 -1.277586
43 0.684170 1.287374 -0.996383 0.391947 -0.024408 0.300982 -0.152841 -0.668516 0.365077 0.474996 0.465274 0.378369 0.560373 -0.438920 0.409605 0.601509 -0.994697 0.095812 0.070991 0.566950 0.294490 0.627252 0.111682 0.068243 0.082263 -0.710982 0.339816 0.316307 -0.847846 -0.866484 -0.090990 0.217252 -0.803516 0.522786 0.527737 -0.287139 1.084745 -0.538503 0.035440 0.414494 0.711790 -0.427754 -0.024459 0.661481 0.537786 0.179641 0.678698 0.004715 0.466930 -1.377525 0.344744 0.434898 -0.395245 1.079002 -0.631704 -0.450975 0.883815 -0.367602 0.832538 0.306891 0.587794 -0.826340 1.349965 0.278203
4189 0.470317 0.190106 -0.024409 -0.895196 0.083284 -0.769385 -0.840367 -0.015993 0.239802 -1.247652 0.482205 0.291168 0.027918 -0.669527 -0.465047 -0.366997 -1.204453 0.199974 0.825823 0.746242 -0.993838 0.477005 0.109512 -0.462651 -0.023266 0.990718 0.416825 0.088736 -0.101356 -0.214806 -1.168183 0.196885 -0.566592 0.964341 0.728488 -0.059568 -0.149997 -0.151906 -0.008163 0.250925 0.105744 -0.715081 0.072419 0.954394 0.789690 -0.705083 -0.010990 0.385538 0.504370 -0.102660 -0.230569 -0.219779 0.311243 0.776930 0.022767 -0.339486 -0.221803 0.363735 0.471541 -0.673879 1.560679 -0.205932 1.338080 -0.267002
983 0.298981 0.750009 -0.656767 0.290316 0.496107 -0.480448 0.158104 -0.373923 0.547304 -0.425569 0.411488 0.428023 0.412745 -0.355836 0.038451 -0.241458 -0.393295 0.433807 0.343049 -0.665929 -0.199889 1.023193 -0.606118 -0.111306 1.165603 0.379118 -0.460387 0.490169 -0.077563 -0.896558 -1.361177 0.646636 0.257805 -0.062355 0.539064 -0.462350 -0.526723 -0.320623 -0.102890 0.339134 0.295900 -1.249141 -0.445993 -0.096945 0.184392 -0.488701 -0.638710 -0.484568 1.079438 -1.105868 0.279319 -0.073242 0.607869 -0.097616 -0.104865 -1.048412 1.419258 0.020310 0.229585 -0.356178 1.109910 0.215881 0.683281 0.135056
2557 -0.025592 0.797672 -0.584879 -1.090761 -0.104468 -0.099616 0.203389 0.344435 0.887041 0.343497 0.165298 -0.137546 -0.407500 -0.526893 -0.457338 0.685329 0.132903 0.023772 -0.625552 0.627401 0.227630 0.757306 -0.346877 0.418538 -0.278235 -0.441629 -0.320910 0.656785 -0.378451 -0.846528 0.272361 -0.110033 -1.237727 0.300858 -0.142030 -0.337072 0.468052 -1.113576 -0.246112 0.472454 0.903326 -0.702480 -0.768421 1.022776 -0.222329 -0.088027 -1.190021 -0.031143 1.518822 -0.793473 -0.342451 0.018836 0.844041 0.421239 0.175424 -1.259684 0.481042 -0.308334 0.140936 -0.277701 0.650012 -0.411769 0.706584 -0.445492
3462 -0.415901 0.918707 -0.739910 -0.548529 0.476762 -0.681855 -0.241341 0.181519 -0.282773 0.099068 0.530108 0.852359 0.298860 -1.224772 0.587577 -0.378642 1.495795 -0.583063 1.185931 -0.251042 -0.487008 -0.550622 -0.282823 -0.435812 -0.825664 -0.239040 -0.472069 1.107731 -0.796089 -0.827016 -0.357277 -1.524958 0.065933 0.676578 0.037608 0.483097 -0.029845 -0.445646 -0.482986 -0.720069 0.528056 -0.634771 1.104067 0.054780 0.205861 -0.273398 0.099093 0.315277 -0.193660 -0.012917 -0.458948 -0.905495 0.393112 0.412128 -0.251260 -0.366919 -0.343449 -0.788192 0.198020 1.300499 -0.387339 -0.141098 0.832984 -0.380795
4890 0.317875 0.329953 -0.452886 -0.912705 -0.537875 -0.420120 0.007131 -0.399443 0.706232 -0.032266 1.013548 0.377724 -0.566946 -0.464874 -0.088988 0.022873 0.172097 -0.437328 -0.385157 0.387051 0.090000 1.096914 -0.920405 0.689803 0.413165 -0.310638 -0.398782 0.893546 -0.098681 -1.117085 -0.734597 0.312285 -0.503847 0.307511 -0.457894 -0.445098 0.149644 -1.278815 -0.717921 0.879282 0.084082 -0.563917 -0.014998 0.911379 -0.121484 -0.444170 1.077702 0.098470 0.085642 0.458339 -0.929949 0.180302 1.080333 0.357695 -0.562381 -0.469674 0.308314 -0.768245 -0.606931 0.867996 1.008451 -0.544532 -0.193863 -0.033250
5657 0.123967 0.368249 -0.384547 -0.050501 -0.552266 -0.234579 -1.080216 -0.281163 0.633145 -0.376034 0.744670 1.235681 -0.146906 -0.003871 0.496558 0.164778 -0.354914 -0.629880 -0.373581 -0.854748 -0.025039 0.780879 -0.337805 -0.130696 -0.612781 -0.252283 -0.551623 1.175961 -0.947268 -0.643737 -0.429930 0.590769 -1.176012 -0.152237 -0.442672 -1.090760 -0.845813 0.103408 -0.444281 0.485144 -0.338129 -0.556760 0.202025 -0.073602 -0.175337 -0.611421 0.658974 0.553371 0.203835 1.002127 -0.766676 0.063572 -0.298434 0.570636 -1.179989 0.124788 -0.086837 -0.711412 -0.626627 0.580284 0.607098 -0.853364 -0.001892 0.467786
2440 -0.476239 -0.817814 -0.319173 0.033972 -0.036048 -0.652345 -0.803648 -0.582513 0.078019 -0.026635 0.643567 0.417454 -0.266477 0.263531 0.122834 -0.042502 -0.733328 -0.883187 0.423539 0.065814 -0.001626 1.478245 -0.932937 -0.142373 0.762862 0.147228 0.177705 1.100071 -0.052657 -0.963760 -0.280982 0.296635 -0.700185 0.424977 0.162264 -0.301795 -0.036031 -0.435615 -0.231244 0.028980 0.686519 -0.653427 1.038992 0.024641 -0.338874 -0.312524 1.456264 0.983587 -0.558797 0.868882 -0.284878 -0.259543 0.685091 -0.396172 0.389599 0.087294 -0.916710 -0.416062 -0.384163 1.036442 0.329067 -0.094625 -0.054159 -0.731930
3509 0.190519 0.396310 0.352814 0.408724 0.362359 1.017308 -0.190819 -0.780591 -0.745373 -0.275846 -0.408655 1.218120 0.900936 0.431268 0.213624 0.511591 0.298423 -0.628204 0.900751 0.027277 -0.134561 0.487133 -0.424365 0.086307 0.199203 0.938571 0.079360 0.848828 0.315318 -0.872023 -0.488498 0.556784 -0.182319 -0.713574 -0.904091 -0.394354 0.880147 0.513433 -0.213849 -0.527176 -0.388088 -0.253745 0.100694 -0.215269 0.171895 -1.128683 0.955313 0.977593 -0.750032 -1.112870 -0.458728 0.368473 -0.242193 0.671481 -0.406559 -1.111273 1.128724 -1.130872 0.056348 -0.198164 -0.230787 -0.190503 -0.402537 -0.598920
4643 0.370306 -0.476140 0.112504 -0.642394 -0.336813 -0.888441 -0.944358 0.088940 0.706687 -0.939752 0.347426 -0.846908 0.389953 0.009621 -0.253318 0.083909 0.202353 -0.836894 0.549424 -0.910100 -0.264206 0.320152 -0.978193 -0.231278 0.226312 0.296993 -1.040667 1.082391 -0.601995 -1.012111 -0.299718 1.175654 0.019916 0.543535 -0.090298 -0.609853 -0.424311 0.916615 -0.266959 0.431339 0.266487 -1.002171 0.591383 0.495318 -0.891303 -0.164365 0.752621 0.856958 -0.240679 -0.105858 -0.028167 -0.054413 0.346505 0.079134 -0.261417 -0.202524 0.177261 -0.846506 -0.082892 0.204141 1.336586 -0.606569 -0.659546 0.472676
5436 -0.021934 1.100167 -0.509325 -0.236524 0.613106 -1.104539 -0.160223 0.010968 0.738898 -0.465154 0.169389 -0.264703 0.029633 -0.762283 -0.223307 0.041592 0.935222 -0.401166 0.779507 -0.773637 -0.898553 0.438729 -0.635175 0.611520 0.238317 -0.189107 -0.774599 1.119363 -0.312404 -0.965740 -0.712682 0.091745 0.001031 0.580743 -0.067891 -0.907668 -0.723241 -0.304287 -0.951460 0.593403 0.238699 -0.989751 0.270767 0.023138 -0.030073 -0.287764 -0.339907 0.825208 0.365595 0.056065 -0.400643 -0.874136 0.875524 0.220080 0.067256 -0.414370 -0.026667 -1.053554 -0.350186 0.278483 0.719825 -0.676180 0.157537 -0.411069
5406 0.134778 0.463384 -0.314424 -0.818936 0.952090 -0.097763 -0.912255 0.388033 0.663084 -1.213282 0.440097 -0.036050 -0.168806 -0.384618 -0.087852 -0.493304 0.624677 0.523466 0.447397 -0.163595 -0.457646 0.054155 -1.123970 -0.623448 0.287966 0.377306 -0.660865 0.424055 0.350488 -0.893254 -0.627477 0.330503 0.036217 0.144185 -0.594760 -0.766008 -0.705534 -0.284282 -0.657698 0.270073 -0.811925 -0.625473 1.119959 0.151057 -0.117789 -0.883976 0.291528 0.441813 0.123564 0.372678 -1.219921 0.835895 1.258859 -0.040878 -0.237232 -0.687494 -0.312325 -0.400439 -0.740032 0.186533 0.815697 -0.501699 -0.329553 0.012767
5352 -0.286084 1.246565 -0.164182 -0.008826 0.246808 -0.121176 -0.176315 -0.251642 -0.094047 0.310945 -0.925511 -0.822013 0.379206 -0.523848 -0.314677 0.961799 0.404772 0.053462 1.172711 0.029486 0.343743 -0.012717 -0.809267 0.715000 0.838821 -0.385280 -0.912582 0.638829 -0.068723 -1.422695 0.467628 0.313009 0.175968 0.772155 -1.506046 -0.819062 0.676809 0.246715 0.257188 0.610073 -0.424129 -0.477552 0.308832 0.655899 -0.272791 -1.629201 0.080629 0.009913 -0.690019 -0.473060 -0.243791 -0.857015 -0.240153 -0.093905 -0.369245 -0.459571 -0.598003 -1.110741 -0.256262 -0.054867 -0.073634 -0.267789 0.166094 -0.784544
5175 -0.515284 0.255480 -0.218523 0.709774 -0.137579 -0.169147 0.012289 -0.811015 0.415340 -1.075125 0.269116 -0.430998 -0.364572 0.373231 -0.556502 -0.588315 0.495168 -0.510569 -0.107126 0.363844 -1.292175 -0.524888 -0.935828 0.089484 0.651089 1.064409 -0.105728 -0.209790 0.623268 -0.567323 -0.321271 0.262101 0.629408 -0.520448 -0.289537 -0.639157 0.125230 -0.301488 -1.418602 0.311196 -1.152828 -0.004877 0.480244 0.195620 0.576877 0.335594 0.588120 0.889916 0.128123 0.394639 -0.751571 -0.156494 0.252940 -0.401896 1.352487 0.128634 -0.078730 0.686711 -0.235990 0.378049 -0.448650 -0.232895 0.629833 -1.052368
5373 0.034316 -0.090649 -0.476425 0.949987 -0.179252 0.166335 -1.323902 0.258374 -0.352675 -0.727443 0.953780 -1.163612 0.007434 0.146117 -0.837944 0.169145 -0.213293 -0.507558 0.061443 0.379913 -0.358688 0.049574 -0.764683 -0.178964 0.006439 0.722524 0.117046 0.065962 0.057515 -1.207927 0.092167 0.140727 -0.286699 -0.429417 -1.296458 -0.392089 0.533469 0.118345 0.176615 0.354827 -0.341388 0.545304 -0.057112 -0.118064 0.079961 0.238371 0.072797 0.728335 0.071576 0.282800 -0.129497 0.959899 0.599442 -0.644249 0.807857 -0.864479 -0.688396 0.463720 0.234002 0.171699 0.542423 -0.359267 -0.321215 -1.463836
32 -0.731237 0.621618 0.544092 -0.739848 0.217955 0.457606 0.057469 -0.141785 0.298382 -0.555325 0.544217 0.962729 -0.372264 0.021385 0.635626 0.559969 0.319338 -0.049626 0.434832 0.276128 -0.334856 0.399550 -0.051967 0.021498 0.080918 0.319525 -1.657167 0.684520 0.472750 -0.810347 -0.476509 0.419572 0.114333 0.134785 -0.599247 -0.114626 0.301863 -0.599507 0.262756 0.036860 0.460395 -0.810836 0.204476 0.360921 1.000118 -0.439064 0.135908 -0.002571 -0.714428 -0.698412 -0.697718 -0.584417 0.153930 1.311334 -0.071839 -1.680704 0.380879 -0.261028 0.389875 0.613405 1.148472 0.930515 0.402788 -0.107120
3301 -0.447537 -0.013595 0.318574 0.155919 0.287758 -0.112694 -0.373030 0.494619 -0.740203 -0.699472 0.704782 0.016840 -0.340699 -0.469147 0.616228 -0.439177 0.825307 -0.544209 0.625534 0.307389 -0.480680 -1.481385 -0.083373 -0.828764 -0.595220 0.835835 0.354794 -0.007839 0.179891 0.118931 -0.923356 -1.363091 -0.104326 0.078910 0.037103 0.163051 0.378049 0.535071 -0.582578 -0.023722 -0.014826 0.741380 0.392125 -0.008285 0.987456 -0.224729 0.096196 1.838992 -0.336690 -0.621964 -0.117201 0.723238 0.053869 0.314816 0.152678 -1.753802 -0.914363 0.137900 0.586545 0.908602 0.147514 0.291191 0.069780 -0.641415
2146 -0.127067 0.383889 0.103765 1.181785 -0.238771 -0.663199 -0.588333 -0.212707 0.107421 -1.120622 -0.071690 -0.324476 0.203366 -0.624463 0.972205 -0.864156 -0.136243 -0.162517 0.633132 -0.172563 -0.080436 -0.016834 -0.809920 -0.259404 0.711228 -0.017123 0.211008 0.252310 -0.065941 -0.710905 -0.151379 -0.329317 1.341489 0.001062 0.287724 0.390254 0.386785 0.074740 0.065791 -0.216687 0.632229 -0.208564 1.330510 0.154110 -0.495764 -0.644308 0.520377 0.490771 -0.728684 -0.011978 0.671619 0.065037 -0.077660 -0.146823 -0.362076 0.539393 -0.189521 -0.263768 0.152520 0.583913 0.433799 0.239171 0.108668 -0.881947
5168 -0.165402 0.101424 -0.045927 -0.046530 -0.301790 -0.408249 -0.063960 0.401002 0.195299 -1.434922 1.206083 0.237921 -0.714694 -0.594162 0.840616 -0.370721 0.294718 -0.677999 -0.087026 -0.599636 0.167648 -1.044850 -0.819105 -0.996031 0.043770 0.140846 -0.937555 0.579046 -0.454241 -0.274409 -0.750549 -0.333865 -0.006962 0.242950 0.312989 0.750615 -0.841220 0.175708 -0.104738 0.780466 0.708878 -0.346742 0.810791 0.865317 0.220195 -0.185482 -0.040216 0.789862 -1.084689 -0.391775 0.009497 -0.053994 -0.265057 1.039036 0.138427 0.099744 -0.886017 0.382062 -0.419437 0.695243 0.882333 -0.492293 0.324813 0.593609
4257 0.193737 0.366453 0.005273 1.249746 -0.378154 -0.377308 0.598145 -0.569100 0.428581 -0.047985 0.094844 -0.396978 0.251256 0.043878 0.603154 -0.161728 0.040846 -0.315926 0.057249 -0.333329 -0.418378 -0.150682 -0.620052 0.251013 0.888324 0.013156 -0.119298 -0.125547 -0.205182 -0.254595 -0.378890 0.540027 0.446482 0.774798 0.305706 -0.629596 -0.072674 -0.149432 -0.648656 1.049478 0.221897 -0.380517 0.227471 0.581406 -0.062324 0.378140 1.086066 0.603869 -1.014503 -1.602093 0.542036 -0.750410 -0.056660 0.508274 0.209071 -0.275257 0.304319 -0.187144 -0.450132 0.623215 -0.043836 -0.712383 0.744762 -0.094914
3937 0.234055 -0.043849 0.977176 0.051711 0.326390 -0.352721 -0.029726 0.393473 -0.111542 0.002230 -0.416359 -0.006531 -0.783951 -0.266804 -0.437889 -0.336381 1.386052 0.433624 -0.034879 0.477463 -0.250812 0.216891 -0.440130 0.453081 0.425577 0.568015 1.551794 0.680265 0.260227 0.052161 -0.551916 -1.084067 0.515861 -0.226990 -0.752159 -0.768951 -0.110981 -0.707624 -0.290548 0.243911 -0.213202 0.343117 0.625445 -0.369278 -0.786396 -0.413591 0.323342 0.842815 0.033297 0.187612 -0.169319 -0.181102 1.155157 -0.777195 0.410545 -0.587912 -0.638005 -0.592950 -0.799342 0.347899 -0.252062 -0.782418 -0.320821 -1.050371
5788 0.937151 0.399576 0.101965 0.358616 -0.526092 0.355693 0.740527 0.050402 0.080114 -0.300096 0.079496 0.478253 -0.158909 -0.280820 -0.781026 -0.712865 0.958728 0.098094 -0.584954 1.179760 0.090603 -0.199120 -0.436562 0.854028 1.178582 0.468464 1.192950 -0.215317 0.896689 -0.651406 -0.157956 -0.966388 0.951346 -0.607217 -0.576997 0.203771 0.339687 -1.028105 -0.254668 -0.274558 -0.398590 -0.200124 -0.337435 0.134416 0.213025 0.136361 0.247268 -0.021060 0.395545 -0.235175 0.168554 -0.091249 0.643234 -0.074431 0.473653 -0.363620 1.086434 0.880439 0.604305 0.559414 -0.166734 0.457028 0.625767 -0.992276
762 -0.402009 -0.299292 -0.120692 0.239140 0.308389 0.189537 -0.047168 -0.713917 -0.549584 -0.783277 1.345748 0.621686 -0.415879 0.607664 0.199040 -0.449395 0.570409 0.165619 0.560154 0.073714 -0.181332 0.023584 -0.692611 0.549175 0.258098 0.072430 0.236193 0.530023 0.093886 -0.042409 -0.563876 0.190302 0.896271 -0.112408 0.757258 -0.139329 0.057949 -0.362567 0.592816 -0.527116 -0.003650 -0.115509 0.527008 -0.415493 -0.535364 -0.428464 0.119763 0.263544 -0.068385 -0.464852 0.098856 -0.324376 -0.798176 0.758343 0.714007 0.606577 -0.964670 -0.242632 0.317109 -0.235986 -0.122997 -1.050332 -0.245315 -0.853631
5616 1.391548 0.690499 -0.771279 0.199815 -0.148417 -1.150585 -0.470921 0.522702 -0.292174 -0.015522 0.113379 1.394331 0.381037 0.173015 0.004857 -0.409631 0.509345 -0.724943 -0.658034 0.405468 0.097204 -0.388117 -0.236259 0.883615 -0.295007 -0.368194 0.511471 0.445476 -0.717920 -0.002949 -0.128297 -0.516255 0.561223 0.419640 0.876114 -0.408369 0.579665 -0.319398 0.597110 -0.022900 -0.464726 -0.412153 -0.529629 0.152269 -1.268123 -0.113796 -0.643926 0.573038 0.088942 -1.293170 0.605618 -0.509439 -0.584355 0.162065 0.280440 -0.394237 -0.680349 0.437099 1.149853 -0.220337 -0.320554 -0.737608 0.799967 -1.001611
5828 0.745087 -0.534293 0.915080 -0.370533 -0.063508 -0.157012 0.183444 -0.059516 0.157116 -0.459736 0.090829 0.489234 -0.462543 0.122157 -0.593335 -0.179938 1.352247 0.152030 0.010926 -0.341695 0.070875 0.416855 -0.357883 0.952920 0.957399 0.866822 0.419624 0.260969 0.646193 0.132318 -1.143174 -0.073540 1.113927 0.012554 -0.352108 -0.972058 -0.411695 -0.364353 -0.271624 0.344266 -1.322935 -0.200964 -0.170489 -0.340135 -1.288506 -0.693489 0.545640 0.702126 -0.440404 -0.093001 -0.245257 -0.593985 0.629625 -0.571488 0.336528 -0.976357 -0.307441 0.008887 -0.325108 0.065224 -0.004129 -0.647123 -0.278992 -0.861799
4111 0.555924 -0.218263 -0.212601 0.280339 -0.164649 -0.436497 0.768333 -0.374893 0.019944 -0.576579 0.271406 -0.358664 0.195005 0.001524 0.132152 -0.069874 0.416763 0.351916 -0.563674 0.213438 0.152619 0.323377 -0.910429 0.736483 0.602167 0.421137 0.217260 -0.260309 -0.047035 -0.606247 0.371272 0.046055 0.900944 0.394413 -0.013910 -0.342753 -0.580844 -0.195060 -0.146885 0.584078 0.176255 0.005277 0.176424 0.926074 -0.769434 0.065041 0.759602 -0.326015 -0.685325 -2.075320 0.312301 -0.250839 -0.187111 0.010360 0.635142 -0.396575 0.456433 -0.376298 -0.066505 0.383322 0.174182 -0.848904 0.132867 0.333514
4487 0.748950 -0.544766 0.067588 -0.408375 -0.249624 -0.434607 0.430763 -0.259262 -0.008389 -0.279113 0.565841 -0.283448 -0.149321 -0.174197 0.034872 0.512336 0.535916 0.421979 -0.406608 0.330843 0.097120 0.098554 -0.872103 0.609374 0.735876 0.229008 0.058364 -0.056865 0.045640 -0.537781 0.177125 -0.030494 0.948527 0.302085 -0.150521 -0.125650 -0.485530 -0.266702 0.070706 1.009932 0.055301 -0.192254 -0.010575 1.004882 -1.208860 0.301658 1.143182 -0.371555 -0.640104 -2.266969 0.380341 -0.228446 -0.272890 0.262423 0.460833 -0.271621 0.294587 -0.257099 -0.005240 0.260772 0.259092 -0.985966 0.187193 0.367144
1144 0.311395 -0.740340 0.504905 0.053459 -0.480125 0.148986 -0.251916 -0.065156 0.225738 -1.277167 0.586475 0.671068 0.011532 0.154414 0.246410 -0.732452 0.474301 -0.397978 -0.395153 -0.000783 0.082318 -0.062294 -0.099352 -0.065880 0.235369 0.901918 -0.897349 0.078842 0.467548 -0.433060 -0.631309 0.109190 1.397680 -0.148738 0.802350 -0.374118 0.134511 0.806715 -0.001629 -0.293118 -1.163666 -0.007940 -0.277187 -0.140566 -0.291521 -0.067597 0.676137 0.657473 -0.433539 -0.031922 -0.274744 0.009614 -0.460487 0.355871 0.540561 -0.676322 -0.092876 0.290843 1.085693 0.548339 1.384429 1.135963 -0.370649 -0.032771
21 -0.226397 -0.692531 0.331788 0.130480 0.081026 0.193876 0.749200 -0.275468 -0.186484 1.532771 -0.011716 0.476816 0.268179 0.666037 0.395829 1.026158 0.139019 0.419031 0.432146 -0.182365 1.105724 0.063427 0.140792 -0.616015 0.187437 0.087310 -0.306253 0.442786 -0.285587 0.357958 -0.164524 0.239153 0.425620 -0.195457 0.790272 -0.268493 0.697934 0.687131 0.564463 0.272129 -0.171533 -0.291640 -0.218537 -0.578178 -1.440938 -0.040893 -0.174358 0.361475 -0.583653 -1.457128 0.568196 -0.208446 0.108443 0.041302 -0.071878 -0.594388 -0.375905 -0.738168 0.318332 -0.560754 -1.004756 -0.732771 0.456248 0.472376
65 0.702031 0.174494 0.562386 0.086758 0.082477 -0.722597 1.409547 0.175603 -0.481453 0.672664 -0.976752 0.044342 0.066040 0.409743 -0.765465 0.378626 0.133100 0.879275 0.368326 0.814119 0.381874 -0.231016 0.622784 0.454399 0.707812 1.028606 0.496912 -0.910365 0.064614 0.551705 -0.309350 0.003105 0.898715 -0.150849 0.379136 -0.338025 -0.341473 0.777462 0.317352 0.284526 -0.753158 -0.559660 -0.510026 -0.191847 -0.060819 -0.183504 -1.108067 0.310095 0.078543 -0.330205 0.080964 -0.828602 -0.630352 0.096104 -0.451548 -0.645748 0.079922 0.602484 0.501643 -1.159124 -0.474145 -0.010572 0.716956 0.183054
122 0.704358 0.115505 0.090471 -0.352001 0.075313 -0.196854 -0.371487 0.594632 -0.682074 0.113942 -1.010175 0.481044 0.598370 0.076481 -0.011950 0.185116 0.088968 0.181492 0.319932 0.518864 -0.685537 -0.145741 -0.320015 0.119631 -0.667932 0.994125 0.161166 -0.468933 0.549841 -0.215533 0.259531 0.358664 0.056579 0.139972 0.160035 -1.134477 -0.868408 0.393857 0.234636 -0.070811 -1.215890 0.448663 -0.735744 -0.222423 0.159247 -0.809742 -0.557933 0.334908 0.033903 0.522693 -1.885136 0.050275 -0.039336 0.364349 -0.928136 -0.726000 -0.571194 -0.715997 -0.179617 -0.994453 0.480879 0.368536 -0.005187 -0.601871
127 0.730468 -0.549464 0.339061 0.171513 -0.645492 -0.093943 -0.360044 1.112502 -0.561276 -0.195316 0.042878 -0.404598 0.472115 0.227800 0.399252 -0.552365 0.628008 -0.714983 -0.088750 -0.423365 0.122721 -0.689217 -0.071463 -0.684908 -0.152841 0.571972 0.044075 -0.294569 -0.052671 -0.074654 0.079508 -0.074045 1.327884 0.041712 1.860576 0.274608 0.030508 1.440332 0.865652 -0.674022 0.699664 0.168650 0.593951 -0.565150 -0.859563 0.536101 -0.559715 0.941844 0.208726 -0.457938 -0.279841 0.109376 0.202066 -0.177663 -0.213212 -0.544712 0.207166 0.011605 0.717989 0.025127 0.256719 0.637071 0.066959 0.571756
129 -0.257893 0.330600 -0.429744 -0.248927 -0.445247 -0.302909 0.832466 0.028941 0.328542 0.644683 0.657495 0.084131 -0.273624 -0.699249 -0.661830 -0.021540 0.720826 -0.497211 -0.134713 -0.219821 0.213047 -0.791397 -0.828522 -0.099160 -0.588576 -0.272434 -0.524202 0.740292 -0.743470 -0.587299 0.200319 0.017941 -1.450303 -0.198040 -0.489108 0.044064 -1.049908 0.451649 -0.432622 0.534809 -0.027643 -0.624139 -0.019081 0.242782 0.297879 -0.062865 -1.299302 0.435646 0.802117 0.814803 -0.397910 -0.053789 0.343253 0.705334 -0.795663 0.538426 0.056864 -0.759413 -0.633204 0.058758 -0.258627 -1.260425 0.842262 0.536777
158 -0.630787 0.766189 0.180067 -0.505178 -0.133488 -0.029732 -0.025242 -0.363728 0.343863 0.335801 0.383457 -1.117987 0.773254 -0.359584 -1.035272 0.371576 -0.256429 -0.122235 1.139710 -0.337223 -0.612543 0.147643 -0.721324 -0.349525 -0.043183 0.695160 0.083640 0.313925 -0.583953 -0.745947 -0.246857 0.227290 -1.001623 0.009804 -1.656090 -0.627390 -0.085034 1.072837 -0.335121 0.557277 -0.706832 -0.335300 0.199155 0.147571 0.395066 0.317293 -0.227148 -0.176159 0.337807 1.514809 -0.746847 -0.134078 0.311964 0.064587 -0.451271 0.231594 0.382731 -0.584611 -0.216933 -0.684913 0.686342 -0.880032 0.803613 -0.071576
191 -0.184965 1.018987 -0.341908 0.832827 -0.857251 -0.127598 0.563977 -0.055633 -0.393540 -0.559140 -0.073806 0.875541 -0.251403 -0.125607 0.524841 -0.393440 -0.750057 -0.253834 -0.423217 0.433207 0.717367 0.287264 -1.283798 0.507070 0.926241 0.247045 -0.741704 0.214504 0.007914 -0.672059 0.329830 0.007052 1.039849 0.436109 0.499331 -0.006471 -1.111123 -0.270284 0.344281 0.233274 -0.628762 0.060085 -0.010203 -0.754996 -0.546857 0.280089 -0.406244 -0.574494 -0.289457 0.177506 0.042526 0.139214 0.024742 1.088299 -0.783464 -0.023237 -0.004958 0.539712 0.622923 1.311691 0.123305 0.550591 0.802733 0.836332
241 -0.742271 -1.397778 0.407798 -0.221399 -0.877338 0.515215 -0.567976 0.166746 -0.811236 0.153670 0.631686 -1.142750 0.597957 0.291848 -0.232779 -0.196843 -1.289616 0.482510 0.835452 -0.180615 0.631622 0.434397 0.047636 -1.170234 -0.177043 0.583870 0.004920 -1.029812 -0.203044 0.033760 -0.337714 0.702268 -0.074905 -0.192393 0.359394 0.811557 -0.096108 1.042698 0.876010 -0.475454 1.041565 0.675401 0.614156 -0.351235 0.080200 0.192462 -0.532529 -0.648280 -0.320018 0.762828 -0.558785 0.221429 -0.099907 -0.483823 -0.092633 0.420833 0.045184 0.349084 -0.097671 -0.488938 0.486338 0.362762 -0.045399 0.151716
252 -0.116320 0.289077 0.530181 -0.658224 -0.694387 -0.666410 -0.338648 0.040793 -0.437602 -1.161902 -0.087747 0.235422 -0.227364 0.014597 0.409360 -0.611985 0.004507 -0.155733 -0.065545 0.474933 -0.551253 0.101501 -1.622232 0.014864 0.347605 1.221644 -0.971927 0.444242 -0.182943 -0.680447 -0.321268 0.037571 0.644672 1.082450 0.733096 -0.566071 -0.604548 0.363482 0.012211 -0.259392 0.015697 -0.398797 1.205798 -0.205636 -0.806333 -0.321852 -0.100228 0.568978 -0.019649 0.617193 -1.203084 -0.480827 0.582362 0.882362 -0.333146 -0.152490 -0.604482 -0.093890 0.255037 0.713346 1.333814 -0.090880 0.530859 0.225189
288 -0.784452 -0.606379 0.635924 -0.171771 -0.333136 0.134080 0.136926 -0.484224 -0.798850 0.763982 0.749451 -0.794024 0.486880 0.064401 0.334789 -0.101170 -0.416242 0.738657 0.130979 0.134914 -0.082928 -0.226397 -0.509102 -1.163164 -0.048545 0.484425 -1.215713 -0.635543 -0.426329 -0.182197 -0.426700 0.634200 0.353936 -0.257756 0.158061 0.302519 0.537331 0.965649 0.490133 0.659287 0.582427 0.161132 0.311308 -0.116640 -0.260269 0.955295 -0.219880 -1.423632 -0.071059 -1.387186 -0.278531 0.638437 -0.015329 -0.013314 -0.316157 -0.328689 0.844205 -0.331229 -0.194361 -0.583869 1.250631 -0.007517 -0.024264 0.924293
380 -0.033064 -0.183238 -0.467753 -0.670607 0.259535 0.097405 -0.803923 0.193675 -0.168555 0.839822 0.679045 0.302224 0.734630 0.132017 0.881878 0.223778 -0.134938 0.146154 1.543803 -0.605841 0.044500 -0.541098 -0.804676 -0.562743 -0.872191 0.187610 0.390003 -0.205320 -0.081648 -0.075399 0.254363 0.176212 -0.416088 -0.170431 -0.057695 -0.859607 -0.234169 -0.276014 0.208049 -0.137543 -0.485055 0.730276 0.356480 -0.500503 -0.956363 0.081902 -0.096073 0.377266 -0.945146 0.362607 -0.941204 0.379493 -0.253937 -0.233933 -0.384815 -0.481521 -0.358595 -0.574629 -0.192192 -0.276922 -0.844481 -1.495893 0.618115 -0.624407
389 -0.469251 1.778831 -0.245829 -0.116819 0.724251 -0.275453 0.943465 -0.070037 -0.303327 0.210356 -0.151591 0.285152 0.934704 0.311455 0.148758 0.362439 0.089799 0.744526 1.272161 -0.262601 -0.104052 -0.352186 -0.615666 -0.099035 0.870221 0.576163 -0.359277 -0.199001 -0.030585 -0.275173 -0.775550 0.061638 0.399789 0.425276 0.612327 0.059370 0.324635 1.005176 -0.138948 0.256554 -0.753058 -0.272391 -0.034372 -0.313177 0.042285 -0.300858 -1.221794 -0.214377 -0.022296 -0.229178 -0.837517 0.213064 -0.125906 0.797373 -0.959049 -1.112437 0.340829 0.180472 0.576343 -1.097836 0.111797 -0.122646 1.212111 0.275294
398 0.877886 -0.299644 -0.044209 -0.885885 -0.461818 -0.151445 0.528807 -0.130967 -0.366203 0.606322 -0.554263 0.999429 -0.132207 0.064969 0.251292 -0.193740 0.581343 -0.637676 -0.123042 0.880442 -0.265735 0.099835 -0.952160 0.446890 -0.439726 0.865535 -0.103670 -0.024506 0.490526 -0.052501 0.163583 -0.338419 -0.136918 0.428747 0.453066 -0.852520 0.090881 -0.097604 -0.625790 0.030996 -1.087655 0.103447 0.087912 0.273808 -0.589749 -0.722182 0.282730 0.981810 -0.553848 0.678051 -1.755258 -0.342833 0.705622 0.377799 -0.147975 -0.015542 -0.448249 -0.873136 -0.762799 0.053335 -0.193924 -0.259210 0.491984 -0.534319
438 0.304433 -0.215804 0.314939 -0.056976 -0.374540 -0.120868 0.103485 0.062363 -0.737581 0.234565 0.203521 -0.930851 0.099090 0.121628 -0.389252 0.756581 0.830714 -0.983915 0.913810 0.265981 0.161517 -0.412325 -0.437395 1.256194 -0.039601 0.813579 0.684334 0.077889 0.516875 -0.031695 1.527927 -0.901918 1.292943 -0.047211 -0.535001 -0.740423 -0.096001 0.668784 0.327339 0.113314 -0.044463 1.005606 0.073393 -0.766665 -1.188447 0.309558 -0.351443 0.632436 -0.111897 -0.164817 0.211157 -0.491789 -0.305316 0.173789 0.535124 -0.219856 -0.054616 -0.611492 0.332103 0.398834 -0.647348 -0.455155 -0.543963 -0.388277
536 0.208617 -0.382425 -0.218157 -0.977545 -0.593882 -0.773185 0.609406 -0.313104 -0.081677 0.517019 0.012237 -0.746478 -0.182145 0.503718 -0.713178 1.062865 0.042158 -0.688191 0.820509 0.540627 0.086416 -0.220490 0.340991 0.561477 0.044879 0.853829 0.411998 -0.055536 -0.319155 0.399629 1.025243 -0.630415 -0.006151 0.540784 1.167413 -0.933198 0.207209 0.827390 0.233166 0.216279 0.741790 0.127791 0.132648 0.020050 -0.383215 -0.336678 -0.466490 1.305310 0.607841 0.138814 -0.177631 -1.072096 -0.231592 0.085884 0.376452 0.298217 -0.863899 -0.496686 0.312298 0.025781 -0.110341 -0.719761 0.537769 0.092098
541 0.978685 -0.624883 0.129831 0.045030 -0.341952 -0.711965 -0.173269 -0.154237 -0.838727 0.229507 -0.355376 -0.566481 0.231696 0.435083 0.175830 0.569349 -0.973834 0.026770 0.634262 0.817359 -0.084570 0.485394 -0.105528 0.295354 0.568570 1.453630 0.561672 -0.619241 0.254527 -0.431528 0.366020 -0.359181 1.067419 0.030075 1.178216 -1.224123 0.027259 0.659879 0.354780 -0.288148 -0.031592 0.143741 0.708015 -0.613760 -0.948779 0.112933 0.658260 0.851815 -0.011840 -0.456742 -0.253872 -0.354739 -0.235346 -0.376817 0.173936 -0.577802 -0.119761 -0.027849 0.482056 0.109336 0.153989 -0.147341 0.322892 0.011010
547 -0.564244 -0.553266 0.677451 -0.532136 -0.490101 0.220678 1.075911 -0.034158 -0.075397 0.366627 -0.094604 -0.221375 0.337434 0.531130 -0.400826 0.595848 1.489862 -0.470966 0.130840 -1.171278 0.903727 -0.420419 0.112741 0.012049 0.440992 0.065790 -0.767365 0.373053 -0.065038 -0.103990 -0.315846 0.055965 0.469932 -0.893120 0.408139 0.024955 0.027961 1.645685 0.312116 0.090853 -0.371666 -0.638141 -0.455052 -0.878206 -0.967222 0.476348 -0.336566 0.448727 0.043745 0.204084 -0.144102 0.269804 0.045528 0.104100 -0.632443 -0.979988 0.237522 -0.447598 0.575629 -0.412422 -0.258034 0.606340 -0.671927 0.276896
576 0.416973 0.485668 0.401257 -0.132399 -0.122690 -0.649001 -0.093866 -0.130486 -0.309959 -0.878104 -0.469827 0.386460 -0.065136 -0.324678 0.893151 -0.843565 -0.229052 0.424594 -0.068421 0.126806 -0.254897 -0.386363 -1.450385 0.080907 0.579263 1.133794 -0.610608 -0.227170 -0.036039 -0.728725 -1.293025 -0.081482 0.943201 0.380575 0.720574 -0.505736 -0.544351 0.660093 -0.230984 0.284683 -0.741731 -0.618525 1.178005 -0.670492 -0.875146 0.112941 -0.326574 0.725731 0.103567 -0.074724 -0.667776 0.588100 0.593868 0.036476 -0.309128 -1.174419 0.130856 0.722020 0.633614 0.050232 1.177506 -0.319207 0.498679 0.223711
645 0.436903 0.198424 -0.564667 -0.864555 -0.352781 -0.199571 0.109711 0.818759 -1.291585 0.443568 0.232084 0.444988 -0.312806 0.619407 0.189795 0.078555 0.638529 0.649035 0.436504 0.894794 0.143204 -0.502413 -0.812211 0.100798 -0.342306 0.091406 -0.241825 0.018208 0.175070 -0.385720 -0.305617 0.134650 -0.254498 0.398620 1.341207 0.447066 -0.220823 -0.336692 -0.267290 -0.060368 0.809176 0.000110 0.492974 0.541127 -0.300675 -0.452682 -0.720842 0.545358 -0.724538 -0.333247 -1.799884 0.020548 0.264125 0.729562 -0.475372 -0.294978 -0.784148 -0.244715 -0.180703 -0.074465 -0.375889 -0.784877 0.643031 0.246459
655 -0.508366 0.420862 0.325978 0.469163 -0.178355 -0.826377 0.588584 -0.227612 -0.111255 0.173107 -0.340645 0.385613 0.318359 0.450339 0.254336 -0.231327 -1.043459 0.820789 0.118424 -0.218352 0.266149 0.366720 -0.769565 -0.500145 0.680261 0.263310 -0.367056 0.178997 -0.777156 0.424588 -0.060059 0.746181 1.096445 0.758153 1.360114 -0.263951 -0.484545 0.593467 0.493704 0.276552 0.087106 -0.372058 0.459592 -0.717230 -1.505666 0.276565 -0.662142 -0.993193 0.229372 -0.611016 0.944373 -0.615430 -0.186197 0.595550 -0.560116 0.730588 0.087039 -0.124091 0.707379 -0.525056 -0.074305 -0.477108 0.838252 1.093204
664 -0.649408 0.421931 0.422565 -0.585957 -0.911462 -0.444563 0.592638 -0.574423 -0.051118 0.401497 -0.677712 0.420973 0.205908 0.679130 0.747899 0.295928 -0.555626 0.018036 0.351973 0.161524 0.879627 0.856457 -0.049515 0.954279 0.042231 -0.281544 -0.655141 -0.349288 0.452871 0.959655 0.534915 0.778491 1.121974 0.439116 1.028608 -0.149241 -0.285154 -0.088136 0.561847 -0.315620 0.345101 0.164531 -0.162008 -0.403414 -0.686369 0.077091 -1.002475 -1.012720 -0.816713 0.809843 -0.066982 -1.174284 -0.505148 0.873959 -0.384398 0.936610 0.362690 -0.110376 0.252120 0.138731 -0.368397 0.471822 0.738262 0.521670
693 -0.412921 0.494475 -0.030738 -0.998997 -0.408363 -0.978129 0.722899 0.189141 -0.527277 -0.420461 0.176719 0.072755 -0.919354 0.027029 -0.231824 -0.416182 -0.337041 0.629839 -0.102497 0.943268 -0.302715 -0.522207 -1.190689 0.036789 0.776864 0.859408 -0.292714 0.202308 -0.374053 0.145213 -0.988636 -0.061612 0.197013 1.037207 0.832914 0.123767 -0.364395 0.206053 -0.162104 0.902938 0.311546 -0.468257 0.792857 0.276486 -0.389963 -0.042034 -0.987185 0.099283 0.380807 0.024867 -0.406016 0.068136 0.761898 0.969959 -0.309690 0.040205 -0.653855 0.420280 0.876165 -0.148611 0.875713 -0.805485 0.765931 0.680669
700 -0.612400 -0.742025 0.771993 0.112165 -0.636533 0.705968 0.731860 0.999218 -1.118341 -0.030085 0.694723 -0.042549 -0.824082 0.004821 -0.282581 0.115219 0.497028 -0.346159 -0.487493 0.750645 1.153572 -1.153507 -0.710115 -0.379311 -0.190144 0.000894 -0.529833 0.234359 0.255395 -0.366843 0.528818 -0.298253 0.329917 -0.578093 -0.419907 1.008932 -0.004829 0.539274 0.598237 0.676700 -0.472248 0.793274 -0.269199 0.380521 -0.428479 0.263098 -0.193485 0.398828 -0.915496 0.319616 -0.319783 0.880037 -0.568332 0.866939 -0.489640 -0.433474 -1.334065 -0.161985 -0.010105 0.302661 -0.438069 0.479698 -0.555897 0.173828
715 0.629360 0.300860 0.766293 -0.728706 0.269902 -1.057925 0.249987 0.100645 0.558496 0.809543 -1.145349 -0.038411 0.766978 -0.258909 -0.088771 0.015847 0.216914 0.596299 0.241641 -0.190289 -0.847382 -0.780109 0.542101 -0.312251 -0.622491 0.384827 -0.439873 -0.643248 -0.533433 -0.126345 0.196666 0.402019 0.818694 -0.068345 0.906785 -0.944068 -0.229622 0.918859 0.122909 0.253507 -0.328968 -0.594260 0.159771 0.295304 -0.492924 0.473184 -0.681262 0.232558 0.367612 -0.740430 -0.655843 -0.620555 -0.581326 -0.248824 -0.253581 -0.781113 0.896383 -0.098714 0.268892 -1.353550 0.274096 0.008710 0.692177 0.411254
727 0.689289 -0.099253 -0.509936 -0.073042 -1.166124 -0.137266 -0.148480 0.239317 -0.403921 -0.019676 0.373988 -0.674694 0.406527 -0.158590 -0.071906 -0.159855 -0.735376 -0.619345 1.255433 0.084880 0.350409 0.659107 -0.846909 0.457155 -0.120465 0.477108 0.855294 -0.427674 -0.101003 -0.393055 0.169884 0.207295 -0.459323 0.298376 0.022315 -0.769394 -1.395390 -0.364014 -0.150102 -0.639050 1.283324 0.302471 0.320530 -0.973562 0.371404 0.161107 -0.080339 -0.032040 -0.403360 1.017470 -0.544414 -0.386783 0.646143 0.184559 -0.438157 0.506818 0.947981 -0.453012 -0.511410 1.145429 0.090124 -0.638743 0.328753 0.016089
868 0.124388 -0.314524 -0.650120 -0.659255 -0.556770 -0.028158 0.686545 0.361627 0.170067 0.775678 0.677628 -0.578505 -0.724150 -0.822452 0.458963 -0.210763 -0.593240 -0.494980 0.730300 0.421374 0.681601 0.132232 -0.452057 0.207887 0.746743 0.598374 0.598377 -0.361327 0.545133 0.091016 -0.986294 -0.390858 -0.426562 0.483464 0.602105 0.132252 -0.290635 -0.789181 -0.339356 0.968026 0.809868 -0.162190 0.105659 0.087236 0.616576 0.200546 -0.909331 1.034551 -0.364476 0.321535 0.126466 0.533178 1.263607 -0.191067 0.179343 -1.384302 0.727315 0.651573 0.394695 0.770580 0.161839 -0.220465 0.455868 -0.140434
881 -0.656511 0.956779 0.378259 0.470512 -0.687740 -0.370935 0.360945 -0.050253 -0.092118 -0.385397 0.463240 -1.021982 -0.024673 -0.354576 -1.091864 -0.330464 -0.077375 -0.289537 0.387604 0.611131 -0.609211 -0.042758 -1.321631 -0.274861 0.065072 0.880274 0.363995 0.401168 -0.884944 -0.664843 -0.215842 -0.617686 -0.383821 -0.070183 -1.720768 -0.408406 -0.319584 0.841772 -0.343500 0.413126 -0.069742 0.277954 0.676360 -0.158510 0.186530 0.508994 -0.543038 -0.187588 0.311685 1.256438 -0.565527 -0.255492 0.855307 0.490273 -0.221627 0.200831 -0.123859 -0.553061 -0.563300 0.143426 0.922139 -0.699776 0.455075 -0.386291
1040 -0.264679 0.895331 -0.333232 -1.051039 -0.399324 -0.409294 1.055457 -0.330000 -0.313039 0.367367 -0.402079 0.830514 -0.008593 0.552435 -0.002548 0.767602 -0.370323 0.155900 1.209439 0.376612 0.391309 0.746132 0.037874 0.870639 0.645692 0.493778 0.138193 0.016918 0.552817 1.032606 -0.844325 0.101108 0.414050 0.418231 0.794329 -0.229716 -0.175639 0.008094 -0.015961 0.083137 -0.280970 -0.452559 -0.534563 -0.261459 -0.055959 -0.781734 -1.541101 -0.435070 -0.278325 0.835274 -0.364130 -1.063485 -0.017391 0.941069 -0.420381 0.123349 0.132100 0.325622 0.584666 -0.529418 -0.326263 0.094219 1.095914 0.194578
1067 0.189957 0.045661 0.148480 -1.482545 -0.352386 0.191979 0.418973 -0.455389 0.369139 0.878383 -0.341783 -0.469717 0.278374 -0.189243 -0.822564 0.583483 -0.398294 -0.275755 1.041800 0.574021 -0.105257 0.154165 0.435067 0.464260 -0.321970 0.790997 0.388639 -0.537571 0.531421 0.732827 0.712032 -0.206908 -0.152233 0.222237 -0.239249 -1.140515 0.231764 -0.133361 0.280478 0.543782 -1.023708 0.178042 -0.074571 0.550438 -0.050157 0.082837 -0.158949 0.180682 -0.267118 1.823294 -0.397185 -0.962318 -0.457985 0.012869 -0.051658 0.373402 -0.270956 0.349067 0.018131 -0.454867 -0.066716 -0.527840 1.232591 -0.184663
1133 -0.515279 -0.243747 0.645834 0.149782 -0.187310 -0.359534 0.555336 0.462462 -0.323862 -0.558019 -0.057092 -0.456124 0.371911 0.442651 0.120693 -0.740837 1.240152 -1.044028 0.304772 -0.373442 -0.278320 -0.687305 -0.406368 -0.098931 -0.164162 0.817362 0.021459 -0.258134 0.204614 0.382401 0.347742 -0.723041 0.638152 0.310515 0.364499 0.345619 -0.160591 2.205407 -0.131990 -0.346777 -0.376367 0.943471 -0.274257 -0.718599 -0.330146 -0.012430 -1.084510 0.962463 0.030085 0.601168 -0.442898 0.440915 0.573852 0.565166 -0.058973 -0.566456 -0.410503 -0.760240 0.241428 -0.284137 -0.079106 1.010001 -0.731972 -0.046452
1198 0.096972 -0.797666 -0.466205 -0.063467 -0.953238 -0.601221 -0.215069 -0.217048 0.072777 0.943295 0.164870 -0.590263 0.389521 0.516656 0.746319 0.478344 -0.042593 -0.368035 0.218138 -0.640143 0.741022 0.234633 -0.144150 -0.419778 -0.499158 0.011836 -1.203701 -0.471338 -0.750604 -0.194596 0.066995 0.542269 0.296048 -0.370769 0.678545 -0.099566 -0.440690 0.680707 0.989392 -0.149640 1.685032 -0.612380 0.634282 -0.813975 -0.582744 1.173427 -0.434379 -0.535977 0.060984 -0.547227 -0.421799 -0.059749 -0.045135 -0.477452 -0.628726 0.445122 0.486872 -0.310093 0.097303 0.412558 0.468287 -0.130928 0.068566 0.594100
1333 -1.181126 0.609823 0.184060 -0.112275 0.657807 -0.431963 -0.054225 0.132646 0.291598 0.537969 0.454594 0.507619 0.012819 -0.030305 0.429610 0.362917 -0.517612 -0.148499 1.015858 -0.061200 -0.277020 -1.086362 -0.925877 -0.500356 -0.324424 0.009707 -0.072947 1.013530 -0.291271 0.286375 0.737349 -0.136488 0.321002 0.427101 -0.351671 0.204146 0.383993 0.872921 0.563370 0.298441 -1.056396 0.299896 0.358195 -0.195241 -1.274469 -0.201095 -0.765305 0.594054 -0.306715 0.647973 0.349887 0.257828 -0.418764 0.668442 -0.107719 0.556882 -1.015860 -0.581505 0.626941 -0.225373 -0.907116 -0.620704 1.031777 0.072254
1361 0.101121 0.119916 -0.751985 0.077530 -0.838078 -0.413404 0.031453 -0.340452 0.452893 -0.112060 -0.120501 -1.543352 -0.503832 -0.663199 0.223720 0.438774 -0.000310 -0.683084 -0.149373 0.502989 0.156190 -0.390233 0.070909 -0.022581 0.688156 0.301988 -0.430507 -0.102891 0.220637 -0.763531 0.146712 -0.172042 0.481611 -0.715394 1.134230 -1.127600 0.136575 0.027220 0.249272 0.780835 1.032729 -0.174685 1.528058 0.013882 0.363200 1.158175 0.483181 1.423030 0.221878 1.145331 -0.082825 0.898833 0.595103 -0.057770 -0.539636 0.203447 -0.429681 -0.072686 0.464304 1.096937 0.398893 -0.127173 -0.131024 0.110815
1387 -0.056759 0.558725 0.444045 0.756795 0.398923 0.036890 0.133839 0.360797 -0.199891 0.131970 0.023450 -0.153176 0.242158 -0.415948 -0.659017 -0.355797 -0.075349 0.532995 0.411686 0.082337 -0.674486 -0.063226 -1.176752 -0.169800 0.664058 0.886910 0.706016 0.581874 -0.062169 -0.850678 -0.950044 -0.266811 -0.087599 -0.916187 -1.622104 -0.110813 -0.867873 0.803275 -0.266239 0.595656 -1.577353 0.007916 -0.274421 -0.820828 0.240415 0.213642 -0.554276 -0.143150 0.063283 1.001320 -0.192478 0.968990 0.971200 -0.121048 -0.572924 -0.401704 0.042868 -0.507112 -0.392279 -0.695027 0.348046 -0.335409 -0.247143 -0.433295
1397 -0.376155 -0.227399 1.211372 -0.629756 -0.859882 -0.090517 1.210716 -0.110686 0.163304 -0.220890 -0.177190 0.603650 -0.511954 -0.176943 -0.844982 -0.928221 0.878520 0.385202 -0.425576 0.165830 -0.428567 -0.438849 -0.410436 -0.465384 0.376077 1.236661 0.085785 -0.102403 -0.371239 0.495153 -0.452912 -0.566191 0.856232 0.131502 0.097824 -0.545888 0.025182 0.107407 0.101731 0.503302 -0.948192 -0.077267 0.538463 -0.109426 -0.946345 0.399449 -0.563193 -0.030478 0.001687 0.841273 0.265314 -0.944626 0.680876 0.501770 -0.108473 0.489852 -0.565903 0.595029 -0.085762 -0.040339 -0.113422 -0.384084 1.159543 -0.295519
1402 -0.751588 0.413459 0.019397 1.189274 0.151977 0.044697 0.835907 0.112804 0.620258 0.592477 1.080951 -0.770733 -0.478090 -0.781363 0.350268 -0.142566 -0.649636 -0.882987 0.348518 -0.311569 0.240778 -0.518606 -0.926416 -0.493215 0.673250 0.347525 0.086770 0.927599 -0.141016 -0.557186 0.056342 -0.933368 0.316987 0.103516 -0.619088 0.216084 -0.029361 0.620313 -0.627053 1.126270 -0.312829 0.309691 0.625809 -0.355218 -0.291555 1.188107 0.069391 1.008369 -0.420512 0.362530 1.231745 0.651544 0.797012 0.141618 0.435670 -0.423615 0.313405 -0.045969 0.504104 1.239123 -0.132941 -0.415255 0.540330 0.565132
1438 0.394581 -0.274223 -0.214010 -0.204693 -0.114292 -0.353687 1.135177 -0.417029 -0.514905 0.776831 0.387393 0.110916 -0.096210 0.090561 -0.141173 -0.051780 0.780722 0.653205 -0.026641 0.009356 0.203963 -0.153371 -1.033805 0.074653 0.305886 0.530778 -0.137065 -0.354864 -0.959639 0.388061 -1.220333 -0.016195 0.211993 0.063488 0.234887 -0.512780 0.135368 0.484636 0.205700 0.823070 -0.378931 -0.515869 0.413903 -0.168829 -1.217157 0.284608 -0.706153 -0.236824 -0.024435 -1.515575 0.457170 -0.202070 0.247521 0.101174 -0.077730 -0.160802 0.125136 -0.361350 0.008322 -0.740770 -0.167369 -2.208906 0.670191 -0.076989
1444 -0.256591 0.861076 0.315621 0.191280 -0.564830 0.726750 0.617861 0.747991 -0.527360 -0.531013 0.372309 0.530535 -0.304941 -0.198473 -0.054667 -0.209606 0.139239 -0.300940 0.017424 1.328520 0.496369 -0.629134 -0.635818 0.172092 0.038495 0.294428 0.185079 0.200584 0.603934 -0.444207 0.745863 -0.808820 0.167735 0.544657 -0.229808 0.791205 -0.348401 -0.142115 -0.229080 0.018196 -0.935236 1.187118 -0.402965 0.415484 0.315942 -0.163904 -0.155716 0.628636 -1.173215 1.027511 -0.877606 -0.000379 -0.172345 1.532667 -0.408424 -0.219208 -0.989534 0.539798 -0.007505 1.049924 -0.263236 0.666984 0.889649 0.244859
1476 -0.421451 -0.168453 0.574783 -0.068592 -0.807524 0.787584 0.217760 0.281110 -0.887199 -0.124977 0.459900 0.549263 -0.325735 -0.122904 0.304177 -0.067593 -0.524733 0.358665 -0.031493 0.875832 0.573202 0.404189 -1.375030 -0.089234 0.413265 0.456068 -1.198074 0.525768 -0.050265 -1.235294 0.274329 0.556921 0.219822 0.763313 0.011460 0.549458 0.139892 -0.280647 0.821461 -0.288216 0.223366 0.091618 0.922547 0.498010 -0.454060 -0.393688 0.390448 -0.166329 -1.080349 0.556993 -1.229002 -0.208525 -0.027913 1.028409 -0.313871 -0.090658 -0.832004 -0.262276 0.083089 1.038548 0.314230 0.403956 0.554867 0.103980
1484 -0.549453 -0.433925 0.189948 0.122045 -0.758519 0.133070 0.328190 -0.334147 -0.325776 0.880546 -0.148188 -0.126779 0.316485 0.006810 -0.416130 0.642163 -0.589503 0.101968 -0.954992 0.180481 0.863293 0.096382 -0.186230 -0.322170 -0.409242 -0.782102 -0.374624 0.530503 -0.899106 -0.132215 1.156304 0.732964 -0.134494 -0.664785 0.259031 -0.691989 0.091313 0.585450 0.702687 0.587725 -0.023352 0.118377 -0.139241 -0.219188 -1.487949 0.365675 -0.263126 -0.926727 0.258325 -0.127497 0.171134 0.196803 -0.374850 0.171277 -0.427606 0.966209 -0.407857 -1.322613 -0.466932 -0.933371 -0.282154 -0.801932 -0.662036 0.471276
1492 -0.207648 -0.586182 0.571511 -0.199599 -0.963577 -0.553464 0.275422 -0.214658 -0.676651 -0.147363 -0.399780 -0.030000 0.060218 0.810508 -0.207925 0.321303 -0.627660 -0.304228 -0.009754 0.153893 0.635419 0.639771 -0.565784 0.298804 0.257808 0.431705 -0.586377 0.259402 -0.688283 0.244608 0.893742 0.654895 0.715989 0.667404 1.216459 -0.801917 -0.250304 1.054796 1.005328 -0.446589 0.749951 -0.098252 0.602327 -0.572660 -1.565000 -0.511100 -0.287824 -0.142623 -0.162961 0.249362 -0.014298 -1.273924 -0.617888 0.601155 -0.137432 1.119292 -0.760608 -0.844399 -0.011280 0.059681 -0.008630 -0.134048 0.024821 0.527091
1539 0.188322 -0.540199 -0.007916 0.311914 -1.078210 0.547261 -0.201041 -0.031532 -1.296656 0.218335 0.398132 -0.140144 -0.102181 0.263396 0.214705 0.021441 -0.805641 0.226665 -0.815225 1.783213 0.510515 0.154648 -1.042444 0.040936 -0.393923 0.419004 -0.382525 -0.614570 0.034257 -0.470756 1.066144 0.033456 -0.147246 0.268799 0.556413 -0.257585 0.406383 0.010767 0.435500 0.393600 -0.026350 1.301922 0.174076 0.399009 -0.653332 0.284076 0.449295 -0.326290 -0.654444 -0.637049 -0.892461 0.620159 -0.283451 0.517233 -0.047549 0.095538 -0.847614 -0.150300 -0.612948 0.425493 0.648164 -0.467854 0.153174 0.141072
1545 -0.088793 0.333434 -0.435507 0.020398 -0.051075 0.471982 -0.783151 -0.116174 -0.651149 0.345456 0.107426 -0.549640 0.970591 0.199020 0.412256 0.493318 -1.631349 0.687205 1.705157 -0.132417 0.453202 1.025983 -0.603139 -0.294782 0.346624 0.749885 0.429513 -0.623471 0.665593 -0.394639 0.139548 0.236632 0.187020 0.391443 0.528507 -0.352211 0.342048 -0.209843 0.135881 -0.579329 -0.037332 0.643891 1.030893 -0.483931 -0.594586 -0.075383 0.395308 -0.107804 -0.695524 1.033668 -0.692745 0.065332 -0.114416 -0.297427 -0.425315 -0.091164 0.232513 0.343203 0.147988 0.213032 0.132521 -0.516218 0.988596 -0.113759
1556 -1.248847 -0.260971 0.100847 -0.004068 -0.814522 -0.815475 0.087077 -0.700751 0.297096 0.582374 0.023142 -0.716926 0.481542 0.445537 -0.233841 0.357549 -1.614682 0.246243 0.370032 0.073745 0.178373 0.535420 0.058413 -0.549731 -0.086257 0.029321 -0.220405 -0.178152 -0.856692 0.763812 0.825208 0.780001 0.220239 0.188009 0.612618 -0.406017 -0.029533 0.854401 0.733616 0.013704 0.840566 0.007130 0.435136 -0.500209 -0.898276 0.669844 -0.661646 -1.152258 0.341622 0.261759 0.756061 -0.691497 -0.323511 0.087399 0.102938 1.765697 0.387576 -0.381161 0.267354 -0.351729 0.051795 -0.391896 0.709233 0.765327
1626 0.498192 -0.120176 0.003323 0.711730 -0.202123 0.316630 0.696032 0.285347 -0.450761 0.297362 -0.486045 0.643050 -0.206532 -0.694586 -0.034752 -0.454966 -0.083812 0.481408 -0.745907 0.811477 0.084948 -0.020360 -0.984192 0.625417 0.806055 0.244660 0.680820 0.128849 1.178432 -1.383637 0.274952 0.040530 0.570083 -1.129633 -0.645313 -0.115495 -0.779441 -0.756539 -0.039432 0.449233 -1.284130 0.270279 -0.943954 -0.586468 0.242313 -0.104736 -0.396168 -0.365117 0.018494 0.465894 -0.466775 1.168118 0.669302 -0.177484 -0.322890 -0.533299 0.043241 0.033618 -0.010585 0.006761 -0.575528 0.952821 -0.165886 -0.893887
1673 -0.974686 -0.372194 0.362446 -0.625540 0.546710 -0.332139 -1.107205 0.008908 0.147368 0.277797 -0.205515 0.036095 0.607360 -0.173445 0.679919 0.156980 -0.714675 -0.494955 1.240900 -0.457478 -0.661931 -0.458109 -0.342335 -0.716223 -0.796715 0.747968 0.012551 0.585772 0.354649 0.594427 0.778190 0.151988 0.398205 0.599839 0.422740 -0.516479 0.168427 1.023299 0.265345 -0.183711 -0.512287 0.544683 0.699925 -0.720557 -1.081959 -0.419976 -0.862613 0.836248 0.066748 1.150545 0.046833 0.255081 0.160905 0.312293 0.009304 0.689812 -0.536869 -0.761636 0.704452 -0.446619 -0.290225 0.058240 0.168668 -0.084774
1691 0.141126 -1.302473 1.123028 0.461073 0.183953 0.072525 0.500093 0.890661 -0.685559 1.093031 0.502942 -0.419354 0.065057 0.504306 -0.502761 -0.171814 0.395438 0.072527 0.301582 -0.325803 0.726698 -0.402030 -0.396006 -0.651412 -0.257315 0.527591 0.710869 0.193349 -0.214483 -0.181029 0.005175 -0.315158 0.258194 -0.384308 -0.247376 0.178214 -0.053091 1.553195 0.504576 -0.060078 -0.429814 0.606903 0.076900 -0.560118 -1.191214 -0.067527 -0.311946 0.899032 -0.741184 -0.368167 0.219682 0.182309 0.230622 -0.590745 0.267124 -0.534344 -0.603930 -0.898935 -0.386517 -0.609280 -0.813112 -0.448105 -0.455871 0.102663
1698 0.074373 -0.511680 0.280974 0.007292 -1.269626 0.102664 0.673628 0.086697 -0.930344 -0.014297 0.139050 0.797524 -0.635118 -0.317401 0.502223 -0.092536 -0.381374 0.360818 -1.571710 1.031892 0.624571 0.048894 -1.335388 0.105953 -0.271002 -0.072371 -0.709246 0.156332 -0.652034 -0.450658 0.447076 0.895206 -0.197009 0.403891 0.891239 -0.664982 -0.438808 -0.590228 0.485050 0.540919 0.472879 -0.174808 -0.331177 0.359966 -0.741425 -0.397827 -0.013554 -0.741336 -0.059050 -0.336459 -0.903607 0.110161 -0.073443 0.986811 -0.492529 0.075764 -0.727239 -0.937276 -0.504268 0.355860 0.527830 -0.119529 -0.177880 0.133927
1711 -0.164596 0.441439 0.297150 -0.586719 -0.602474 0.241066 0.812796 -0.091255 -0.464170 -0.636956 0.293191 0.260934 -0.550327 -0.014597 0.125691 -0.083656 -0.571347 0.134384 0.448100 1.313274 0.497385 -0.177285 -0.770911 0.611844 1.134746 1.398809 -0.292727 -0.378243 0.773276 -0.013684 -0.125333 -0.320808 0.745390 0.965018 0.373237 0.196298 0.031038 -0.147684 0.486882 0.437879 -0.737791 0.161021 0.297586 0.238434 0.333675 -0.365171 -0.551873 0.283691 -0.766045 0.823051 -0.304224 -0.168839 -0.286133 1.031654 -0.215688 -0.242390 -0.711152 1.341337 0.954604 0.793073 0.290307 0.411668 1.200808 0.296978
1734 0.184196 0.130066 0.016689 -0.261375 -0.389779 -0.608733 -0.659061 -0.010206 -0.123537 -0.246016 -0.020327 -0.113912 0.652440 -0.008005 0.909630 -0.369642 0.727465 0.324959 0.346188 -1.173432 -0.047537 -0.672172 -1.102339 -0.334647 -0.549395 0.231909 -0.975834 -0.249831 -0.801672 0.250768 -0.394010 0.650226 0.080413 -0.179657 0.235776 -1.174883 -0.965024 0.753123 0.244233 0.125702 -0.498185 -0.404328 0.269036 -0.881561 -1.025127 0.718077 -0.983734 -0.316808 0.122813 -0.065600 -0.279827 0.271015 -0.519890 -0.044098 -0.799974 -0.169535 0.109752 -0.047270 -0.117183 -0.442730 0.393761 -1.358505 0.478757 0.141438
1766 0.340265 0.556709 -0.202495 -0.343441 -0.507961 -0.396399 0.201894 0.117808 0.082263 0.362032 -0.455533 1.081186 -0.159053 0.247595 0.396144 -0.214080 0.195290 -0.824881 -0.068452 1.063379 0.431064 -0.462976 -0.483591 0.693744 -0.639431 -0.198934 0.092963 0.428482 0.172953 0.658513 1.078395 -0.815398 0.672256 0.538297 0.526125 -0.065991 -0.160637 -0.252118 -0.018277 -0.154707 -0.786949 0.416158 0.376133 0.040139 -1.182693 0.132230 -0.062889 0.804560 -1.103803 1.032346 -0.664264 -0.768096 -0.201515 0.713157 -0.039904 1.252049 -1.126539 -0.231517 -0.281725 0.751558 -0.933570 -0.629721 0.822388 -0.057289
1772 0.652729 -1.109267 0.363334 0.906125 -0.709382 0.168006 0.792153 0.170066 -0.840307 0.558276 -0.524495 0.302159 0.338816 0.415513 0.329223 0.024818 0.514096 0.188411 -0.810916 -0.149449 0.695953 -0.058993 0.176264 0.044714 -0.035828 0.069853 -0.762499 -0.675140 -0.579086 -0.461984 0.415695 0.411848 1.054063 -0.512616 1.076140 0.039865 -0.564473 0.840684 1.133818 -0.318855 0.226246 -0.095401 0.008513 -0.600552 -0.954977 0.523507 0.089296 -0.380918 -0.593154 -1.448670 -0.046239 -0.327402 -0.773658 0.067864 -0.526114 -0.011728 -0.158676 -0.401296 0.098129 -0.159041 -0.492141 0.292922 -0.382779 0.460053
1793 0.131278 -0.989893 0.103052 0.430474 -0.366825 0.276493 -0.485276 1.017328 -1.104067 0.254715 0.968804 -1.240259 0.074540 0.339564 -0.032474 0.200760 -0.424233 0.140719 1.004742 -0.758224 0.860483 -0.197657 -0.891060 -0.105844 -0.297500 0.383452 0.624223 -0.606225 0.427135 -0.115796 0.230985 0.280044 0.185735 -0.740385 -0.336111 0.112909 -0.825297 0.655427 0.538979 0.124366 0.190418 0.972486 0.151038 -0.780937 -0.606818 0.224079 -0.492514 -0.022876 -0.369090 0.718015 -0.038929 0.931149 -0.126309 -0.854491 -0.376403 -0.557022 -0.028048 -0.193214 -0.248725 -0.171034 -0.393135 -0.701943 -0.751710 -0.131963
1840 -0.197555 -0.444507 0.433282 0.378285 -0.663240 0.264478 0.237900 -0.254770 -1.374854 0.209137 -0.029241 -0.326550 0.532231 0.468427 0.239100 0.330317 -0.846289 0.572819 0.450986 -0.003455 0.857540 0.479045 -0.502599 -0.301478 0.366534 0.553143 -0.594403 -0.844031 -0.536064 0.017523 -0.102869 0.572104 1.148293 0.132580 0.760907 0.171803 0.434983 0.865409 1.402951 -0.403951 0.678150 0.022533 0.844778 -0.504389 -1.160180 0.448446 0.036025 -1.261233 -0.795008 -1.049412 0.327493 -0.359921 -0.975022 0.111875 -0.326604 0.347470 0.409158 0.027114 0.480623 0.048295 -0.010190 -0.022823 0.290971 0.512939
1842 -0.196431 0.164994 -0.091524 -0.636007 -0.176310 -0.224778 1.335019 -0.110304 0.228241 0.111766 -0.215720 0.266054 -0.609088 -0.605987 0.020821 -0.142081 0.185828 0.021609 -0.925412 0.262690 0.302773 -1.124174 -0.381836 0.307714 0.469736 -0.104590 -1.507352 0.233775 -0.246406 -0.778513 0.541601 0.363808 0.139479 0.469143 1.136572 0.277578 -0.488855 0.025940 0.422950 0.979917 -0.000841 -1.040248 0.422924 0.730994 -0.090778 0.174777 -0.839347 0.397065 0.555730 -0.230738 -0.133141 -0.154816 -0.542766 0.903115 -0.788228 0.159956 -0.799287 0.369750 0.860947 -0.009556 0.343648 -0.130655 0.601190 1.075633
1894 0.104558 -0.582739 -0.072680 -0.146093 -1.023196 0.699799 0.444433 -0.303499 -0.549193 1.225467 0.431373 -0.653851 0.071688 0.200193 -0.554183 0.612103 -0.637768 -0.041433 0.220674 1.157337 0.651111 0.403714 -0.252048 0.324395 -0.141774 0.063335 0.178416 -0.309211 -0.008037 -0.181401 1.485063 -0.259482 0.081336 0.205640 0.449527 0.086459 0.993777 -0.236084 0.540870 -0.035733 0.228162 0.826068 0.537864 0.782695 -0.903843 0.461689 0.968548 -0.042073 -0.929050 -0.034847 -0.268761 -0.583974 -0.346512 -0.047665 0.455400 0.877261 0.047213 -0.364641 -0.319496 0.654541 -0.519751 -0.692137 0.874916 0.247821
1903 -0.024356 0.537496 -0.611375 0.021531 -0.699362 0.087359 0.570740 -0.313426 -0.510762 0.391133 0.223115 0.450197 -0.052913 0.872537 -0.129527 0.658698 -0.762033 -0.133888 0.632650 1.457951 1.051701 0.451009 -0.193066 0.837145 0.483318 0.187108 0.742542 -0.088903 0.175948 0.837873 0.390387 -0.584808 0.283092 0.392555 0.739969 0.048811 0.630121 -0.081007 0.393428 0.105733 -0.367798 0.784835 -0.062157 -0.076771 -0.564390 0.017779 -0.413203 0.230769 -1.049860 0.261088 0.372884 -0.413328 -0.518045 0.781258 0.030677 0.985705 -0.835351 0.503279 0.551519 0.328039 -0.848350 -0.913826 1.172999 0.019199
1910 0.168256 0.790282 -0.086297 -0.160746 -0.090243 0.191235 0.819890 -0.358719 -0.219583 1.147110 -0.444733 0.248147 0.734349 0.479522 0.036745 1.111044 -0.761857 0.212094 1.311520 -0.238494 0.936325 1.100795 0.351351 0.783757 0.669135 0.163389 0.172930 -0.354157 0.745809 0.579679 -0.135283 0.417644 1.016877 -0.292395 0.112218 -0.373331 0.067359 0.108244 0.637003 -0.116501 -0.689815 -0.311490 -0.756609 -0.797556 -0.485839 0.061849 -0.465803 -1.063767 -0.641745 0.389436 0.180432 -0.778193 -0.560381 0.097030 -0.577501 -0.160382 1.145549 0.101790 0.504362 -0.549889 -0.528848 0.154626 0.723240 0.301412
1920 -0.137500 -0.275989 0.269894 0.141371 0.050472 -0.346663 1.668729 -0.321550 0.355369 1.676677 0.408993 -0.941440 0.287785 0.529470 -0.286522 0.502861 0.002154 -0.088974 1.023784 -0.654420 0.334594 -0.261518 -0.040612 0.541486 0.780875 0.367076 0.731839 -0.228649 0.244749 0.262960 0.803916 -0.548020 0.379372 -0.248143 -0.143923 -0.183474 0.377407 0.869066 0.257328 0.293940 -0.451092 0.162212 0.012236 -0.418427 -0.718364 0.655498 -0.047552 0.394472 -0.739302 -0.181525 0.966790 -0.589285 -0.126911 -0.755181 0.513113 0.107232 0.541691 -0.102182 0.408014 -0.016939 -1.032983 -0.730532 0.746764 0.224810
1945 -0.662763 -0.644529 0.002315 0.222254 -0.623650 0.200427 0.740406 -0.473946 -0.254342 0.464506 0.567871 -1.100800 0.391414 0.487929 0.476130 -0.453166 -0.679158 0.274244 0.813959 0.794071 0.424218 0.121511 0.090936 -0.279514 0.338031 0.959230 0.376731 -1.554510 0.184234 0.845377 -0.253916 -0.110343 0.458521 0.160123 1.317173 0.497224 0.470053 0.976653 0.393686 0.067238 0.453259 0.996554 -0.180688 -0.168444 0.801806 0.832609 -0.243162 -0.173084 -0.750003 -0.288966 0.175659 0.374321 -0.271470 -0.356641 0.234800 0.292709 0.505613 0.603209 0.486389 0.137957 0.547891 0.313283 0.692391 0.402009
1973 -0.100986 -0.777727 -0.608705 -0.551126 -0.799227 0.164392 0.238090 -0.677948 0.013238 0.928431 -0.020232 -0.955779 0.656079 -0.286710 0.178318 0.617232 -0.928105 -0.582010 1.143927 -0.552395 0.613483 0.912526 0.146436 0.162401 -0.371227 0.323139 -0.113284 -0.823614 -0.147294 0.127984 0.701020 0.407811 -0.301639 0.430348 1.060174 -0.328357 0.141519 0.303797 0.204263 -0.414860 1.212098 -0.005668 0.721237 -0.055877 -0.096295 -0.207720 -0.110546 -0.116352 -0.160271 1.335578 -0.623476 -0.695034 -0.480005 -0.215985 -0.335691 1.388327 0.645835 -0.531415 -0.329284 0.283966 -0.043035 -0.208745 0.395703 0.157605
2014 -1.191710 -0.995270 0.602505 -0.528161 -0.926227 -0.447196 -0.095054 -0.187315 -0.219528 -0.369793 -0.179547 -1.231035 -0.194556 -0.000295 -0.073988 -0.078276 -1.115196 -0.278822 0.719535 -0.338047 0.464459 -0.075659 -0.034642 -0.371152 0.122220 0.831502 -0.281349 -0.155663 -0.034753 0.792756 0.251795 0.312824 0.562084 0.394806 0.894324 0.270571 -0.248612 1.318524 0.705734 -0.094290 0.984448 0.032924 1.069012 -0.651569 -0.652580 0.073715 -1.014657 0.213009 0.269360 1.276055 0.639370 -0.232204 -0.161136 -0.170152 0.142534 0.960905 -0.262889 0.310064 0.919944 0.073153 0.458306 0.446874 -0.077038 0.519128
2050 -0.505319 -0.865057 -0.151922 -0.728806 -0.526469 0.483008 0.785382 0.209525 -0.452313 0.868730 0.286689 -0.250169 -0.084339 -0.306770 -0.068891 0.041999 -0.207212 0.719721 0.176518 0.444344 0.704687 -0.690797 0.203186 -0.760157 -0.659156 -0.090564 -0.462226 -1.086230 -0.125539 0.614874 -0.196298 0.793717 -0.937776 -0.015912 0.746272 0.715966 -0.236388 0.266453 0.367388 0.687975 -0.087976 0.218762 -0.817113 0.873150 0.889318 -0.140386 -1.028224 -0.479460 -0.311921 0.152913 -0.706513 0.395198 -0.709444 0.297132 -0.668705 0.112525 -0.277565 0.246438 -0.349260 -0.897117 -0.017374 -0.040980 0.661059 0.462214
2069 0.086797 0.518254 0.670509 -1.089422 0.099626 -0.375906 0.675266 0.013308 0.705207 0.753739 -1.208223 -0.522472 0.495718 -0.372617 -0.931315 0.579008 -0.027952 -0.249150 0.307734 -0.095531 -0.271739 -0.786265 0.478678 0.537078 -0.075050 0.122702 -0.570229 0.085696 0.200147 -0.488783 1.026366 0.241595 0.599694 -0.395451 -0.344828 -0.411345 -0.272086 0.855238 0.343216 0.541975 -0.709734 -0.906712 0.120720 0.392994 -0.156262 0.287492 -1.075185 0.107809 0.392464 1.140589 -0.478112 -0.733500 -0.789342 0.003974 -0.546670 0.447121 0.373720 0.153243 0.394299 -1.232159 -0.060264 0.265548 0.310840 0.293737
2086 -0.470334 -0.181369 0.180210 -1.214119 -0.604552 -0.570386 0.227085 -0.104238 -0.780978 0.048105 0.090796 -0.401438 0.131165 0.487971 0.337505 0.332247 -0.886906 0.811982 1.070940 0.268361 0.170424 -0.157478 -0.368925 -0.302246 0.078663 1.181224 -0.445315 -1.178034 -0.141870 1.304962 -0.749408 0.726896 0.167286 0.908294 0.820319 -0.434475 -0.092742 1.029681 0.681444 0.644584 -0.041504 0.107838 0.079278 0.005633 -0.163752 -0.076768 -1.250693 -0.685340 -0.225224 0.019390 -0.231423 -0.231331 -0.767660 0.441408 -0.499459 -0.137107 -0.296220 0.782608 0.721664 -0.807634 0.736869 -0.551700 1.211937 0.633629
2201 0.701358 0.823452 0.169978 -0.687430 0.198639 0.172235 0.400050 0.567572 -0.497711 0.480937 -0.526447 0.175201 0.717806 0.055582 0.403225 0.198729 0.420827 0.168653 1.569171 -0.099650 -0.013002 -0.102009 -0.401621 0.549027 -0.041395 0.682169 -0.204829 -0.410957 0.860347 -0.143113 -0.375601 -0.135093 0.877736 0.308091 0.763290 0.226330 0.049183 0.072708 -0.320439 -0.676708 -0.177265 -0.200960 0.733079 0.108716 -0.093773 -0.204506 -0.312775 0.560106 -1.320955 0.673395 -1.698601 -0.623589 -0.076042 0.162142 -0.507101 -0.813346 0.813118 0.013379 0.045931 0.005341 -0.017384 0.072140 0.878114 -0.193326
2205 -0.595066 0.007252 1.029984 0.082326 0.286914 -0.252970 -0.308190 0.423402 -0.659413 -0.163932 0.509314 -0.526172 0.520874 -0.117601 0.131782 -0.255601 -0.693420 0.851437 0.395245 -0.221389 -0.588275 -0.357749 -0.907208 -0.961979 0.239015 1.176861 -0.408676 -0.591370 -0.343098 -0.708222 -0.783784 0.308055 0.586619 -0.117174 -0.451335 -0.129662 -0.213761 1.421368 0.359659 0.663867 -0.312735 0.401515 0.235466 -0.433524 -0.184815 0.226993 -0.724254 -0.665148 0.082436 -0.454896 -0.621943 1.091217 0.160869 0.128230 -0.482263 -1.343750 0.540516 -0.139746 0.226292 -0.843239 1.117980 0.447548 -0.186520 0.211277
2237 0.009705 -0.480781 1.151365 0.368569 0.281809 -0.279956 -0.355960 0.546804 -0.531436 -0.339691 -0.403393 -0.730108 0.451392 -0.539293 -0.000080 -0.366355 -0.125762 -0.196888 0.520671 -0.658999 -0.446177 -0.921846 -0.438078 -0.592716 -0.192793 1.405182 0.049701 -0.429821 -0.032014 -0.741413 -0.100437 -0.142902 1.124811 -0.598178 -0.074025 -0.330514 -0.355431 2.183052 0.275929 0.103387 -0.752259 0.282623 0.961487 -0.583775 -0.491179 0.108602 -0.682000 0.818775 0.067371 0.720069 -0.369464 0.650580 -0.485161 -0.549038 -0.156221 -0.658131 0.123343 -0.081516 0.241523 -0.670869 0.360530 0.555777 -0.511583 -0.069308
2259 -0.799107 1.740043 -0.085343 0.359883 0.509776 0.148232 1.172912 0.411830 0.168249 0.201767 -0.073139 0.066104 0.671348 -0.395072 -0.468015 -0.218839 0.747579 -0.128464 0.857122 0.221740 -0.076685 -1.002447 -0.372325 -0.249116 0.223946 -0.158000 0.016517 0.394219 0.153966 -0.519378 0.484831 -0.889925 -0.118228 0.341469 -0.009074 0.992252 -0.023930 0.692453 -0.873669 -0.162976 -0.906583 0.375880 0.028832 0.260799 0.389345 -0.155152 -0.838989 0.604488 -0.347979 0.985654 -0.692207 -0.084302 0.138381 1.093493 -0.731348 0.029682 -0.076228 -0.150139 -0.338013 -0.071641 -0.663651 0.161688 1.170437 0.393434
2267 -0.750614 -0.827764 0.159779 0.018668 -0.346242 -0.192078 0.701819 0.389053 -0.376143 0.616779 1.402436 -1.023114 -0.324157 0.232798 -0.001138 -0.235723 -0.655357 0.429481 -0.240284 0.176751 0.086435 -0.488363 -0.777486 -0.347159 -0.045445 0.291090 0.130201 -0.724138 -0.031421 -0.126943 0.670446 0.442407 -0.387519 -0.100686 -0.016236 0.046582 -0.595890 0.591103 0.298712 1.368508 0.027248 1.066368 -1.042053 -0.038192 0.104622 0.318238 -0.933984 -0.801179 0.512959 -0.278053 -0.337567 1.141937 0.240615 -0.039341 -0.196692 -0.480977 -0.107080 -0.434972 -0.136964 -0.690567 0.381614 -0.001240 -0.514736 0.540917
2284 0.264695 0.448778 -0.707326 -0.031427 -0.068436 0.350986 0.720519 0.219503 -0.783008 0.569735 -0.324152 0.673478 0.104595 0.232723 0.336244 0.918517 -0.476690 0.927645 -0.289018 1.030945 0.548517 -0.452527 -0.228483 -0.098003 0.236025 0.079521 -0.548672 -0.524992 0.334659 -0.176542 0.558310 0.585093 -0.076348 0.197525 1.122401 -0.290649 0.115852 -0.225331 0.862384 0.589054 -0.770895 0.226899 -0.668996 0.608796 0.172957 -0.433455 -0.252312 -0.309046 -0.179060 -0.924139 -0.988757 0.384811 -1.166884 0.637387 -0.889373 -0.606238 -1.126535 0.355514 0.148654 -0.622780 -0.066259 -0.123423 1.028931 0.189335
2295 0.364692 0.657381 -0.614055 0.619847 -0.129710 0.287211 1.239311 0.081883 -0.736126 0.754541 0.312023 0.335814 0.148464 0.136719 0.343100 -0.242340 -0.053448 0.739694 0.283207 0.757592 0.825897 0.038094 -1.208965 0.605719 0.771955 0.181372 0.303368 -0.295969 0.327930 -0.349494 0.277297 -0.258639 0.275425 0.957869 1.498976 0.504256 0.334442 -0.599514 -0.389017 0.093036 0.018428 0.315829 0.508355 0.451205 -0.625317 -0.312087 0.183032 0.399717 -0.731586 -0.745659 -0.612192 -0.200724 0.072163 0.501349 -0.229016 -0.273725 0.244549 -0.069931 0.158030 0.347642 -0.506444 -0.897293 1.275296 0.347042
2344 -1.042450 -0.345995 0.757853 0.054491 -1.066078 0.327443 0.256729 -0.013444 -0.487660 0.158045 0.047700 -0.725054 0.185513 0.685524 -0.957912 0.327550 -1.587267 0.602951 -0.059957 1.204385 0.834099 0.717710 0.154246 -0.831936 0.356060 0.632256 -0.103421 -0.145993 -0.618631 0.397309 0.706668 0.511087 0.528275 0.547256 0.268901 0.090036 0.572080 0.539542 1.192321 0.074484 0.463025 0.573601 0.567517 -0.105298 -0.821183 0.805710 0.303940 -1.073630 -0.494145 0.369894 0.317537 -0.373916 -0.396622 0.664170 -0.359495 0.859230 -0.670634 0.017304 0.271322 -0.125689 0.543551 0.005053 0.275826 0.905549
2364 -0.022992 -0.916316 0.473743 -0.892231 -1.109911 0.105158 0.528545 -0.673886 0.308015 0.687809 -0.148842 1.163467 0.107520 -0.147291 1.325129 -0.343913 0.840590 -0.094629 -0.065575 -0.351977 0.008221 -0.094099 0.024930 0.334795 -0.427296 0.532135 -0.385279 -0.488761 0.260073 0.616742 0.020572 0.012268 0.965978 0.193223 1.535799 -0.818005 -0.099730 -0.588933 0.417571 0.081498 0.145379 0.211897 -0.295323 -0.577556 -0.897787 0.135912 -0.764863 0.249530 -0.553633 -0.317903 -0.289236 -0.498549 0.825825 0.201702 0.252214 -0.410983 0.502093 -0.178581 0.051841 0.467819 -0.524999 0.314437 0.878780 -0.530350
2391 -0.354764 -0.658337 0.996157 -0.275829 -1.051674 0.129644 1.862893 -0.483036 -0.109029 0.084555 -0.252628 0.195208 -0.238354 -0.140565 -0.618811 -0.167416 0.727446 0.146477 -1.017136 -0.160128 0.416397 0.338234 -0.085700 0.152794 0.399159 0.274537 -0.403303 0.073176 -1.175725 -0.490226 -0.499784 -0.055830 0.131801 -0.305735 0.673821 -0.388084 -0.581986 0.815966 0.482680 -0.273830 0.582034 -0.396756 0.294188 -0.275374 -0.415211 -0.391551 -0.646293 -0.155505 -0.136596 0.493194 -0.802795 -0.987959 0.363541 0.459074 -0.493629 0.594426 -0.627851 -0.730605 -0.711962 -0.352275 0.385347 -0.019168 -0.545084 -0.096451
2428 -0.303372 0.763175 0.408678 -0.340419 -0.458096 -0.150071 0.771958 -0.523636 0.444538 -0.317911 -0.842973 1.590296 0.086644 0.083815 1.173418 -0.339033 -0.164132 0.259702 -0.078692 -0.035596 0.014945 0.361638 -0.024921 0.568133 0.592156 0.309494 -1.061260 -0.199692 0.440199 0.212789 0.017896 0.336958 1.584545 0.390032 1.319569 -0.548009 -0.552221 -0.612354 0.403102 -0.115082 -0.367007 -0.339665 -0.272741 -0.633114 -0.434185 -0.005398 -0.800852 -0.387337 -0.540647 0.234928 -0.281939 -0.789852 -0.056834 1.046788 -0.548808 -0.193712 0.209538 0.717353 0.570011 0.627162 0.001270 1.198817 1.136721 0.269375
2451 0.328961 0.473942 0.924006 -0.130023 -0.135818 -0.658956 0.445508 0.113832 0.218079 0.572074 -0.766370 -0.179733 0.591760 0.245947 -1.153414 0.056437 -0.599933 1.102840 0.403624 -0.058603 -0.593273 0.333680 -0.204773 -0.423532 0.372419 1.024417 0.538066 -0.288959 -0.434334 0.038622 -0.319899 0.356130 0.487234 -0.579915 -0.758616 -1.059763 -0.589155 0.531142 0.287999 0.455568 -1.300153 -0.534210 -0.118314 -0.548324 -0.512577 0.471383 -0.514862 -0.990083 0.399142 1.133936 -0.257642 -0.687768 0.060406 -0.531371 -0.600202 0.228573 0.307790 0.301043 -0.220501 -1.331549 0.186905 -0.493964 0.958675 -0.120480
2463 -0.247913 -0.594418 0.620101 -1.597968 -0.728801 -0.099197 0.573897 0.226901 -0.029597 0.111906 0.692546 -0.917165 -0.672847 -0.114614 -0.480161 0.435808 -0.097898 -0.049911 0.338978 0.630285 0.008888 -0.330803 0.096086 -0.136056 0.098233 1.296010 -1.074785 0.020848 -0.418023 -0.223810 -0.432248 -0.097181 0.161670 0.702501 -0.088378 0.163307 -0.038910 0.434732 0.740320 0.484234 0.985419 -0.246568 1.082316 0.623435 0.456684 0.569374 -0.213426 0.487702 -0.246164 0.402734 -0.883878 -0.497882 0.313877 0.527400 0.027704 -0.581358 -0.559839 0.369673 0.678801 0.451319 1.431492 -0.191812 0.326652 0.641244
2474 -0.688836 0.688279 -0.374382 -0.819336 -0.491647 -0.332766 0.217122 -0.199499 -0.144648 0.087335 0.427859 0.174636 0.323978 0.559039 0.886203 0.893002 0.272421 0.364797 0.819033 0.427362 -0.235356 -0.503470 0.419066 -0.269509 -0.516562 0.495199 -0.413956 -0.902951 -0.055046 0.459227 0.149224 -0.045329 -0.033434 -0.072637 0.684308 -0.963212 -0.117680 -0.020315 0.405384 0.108002 0.499695 0.861720 -0.795846 -0.311115 0.550203 0.148361 -1.011852 -0.026828 -0.263930 -0.853477 -1.253045 -0.087112 -0.426218 0.853339 -0.497796 -1.510823 -0.446290 0.271717 0.216239 -0.111125 0.253864 0.144876 1.001291 -0.203050
